digraph Tree {
node [shape=box, style="filled, rounded", color="black", fontname=helvetica] ;
edge [fontname=helvetica] ;
0 [label="T <= 24.25\nmse = 7599.937\nsamples = 764\nvalue = 110.068", fillcolor="#f8ddc9"] ;
1 [label="VV <= 1.35\nmse = 6890.444\nsamples = 294\nvalue = 186.245", fillcolor="#f3c5a4"] ;
0 -> 1 [labeldistance=2.5, labelangle=45, headlabel="True"] ;
2 [label="V <= 2.3\nmse = 4548.231\nsamples = 153\nvalue = 221.247", fillcolor="#f1ba93"] ;
1 -> 2 ;
3 [label="VV <= 0.9\nmse = 5449.966\nsamples = 55\nvalue = 250.114", fillcolor="#efb185"] ;
2 -> 3 ;
4 [label="SLP <= 1017.45\nmse = 4843.44\nsamples = 32\nvalue = 281.023", fillcolor="#eda775"] ;
3 -> 4 ;
5 [label="SLP <= 1016.95\nmse = 2772.493\nsamples = 22\nvalue = 301.105", fillcolor="#eca16c"] ;
4 -> 5 ;
6 [label="SLP <= 1014.25\nmse = 2040.533\nsamples = 15\nvalue = 281.683", fillcolor="#eda775"] ;
5 -> 6 ;
7 [label="T <= 18.55\nmse = 410.907\nsamples = 2\nvalue = 217.354", fillcolor="#f1bb95"] ;
6 -> 7 ;
8 [label="mse = 0.0\nsamples = 1\nvalue = 237.625", fillcolor="#f0b58b"] ;
7 -> 8 ;
9 [label="mse = -0.0\nsamples = 1\nvalue = 197.083", fillcolor="#f2c29f"] ;
7 -> 9 ;
10 [label="SLP <= 1016.05\nmse = 1556.658\nsamples = 13\nvalue = 291.579", fillcolor="#eca470"] ;
6 -> 10 ;
11 [label="SLP <= 1015.0\nmse = 572.17\nsamples = 9\nvalue = 309.648", fillcolor="#eb9f67"] ;
10 -> 11 ;
12 [label="mse = 0.0\nsamples = 1\nvalue = 365.75", fillcolor="#e78d4c"] ;
11 -> 12 ;
13 [label="SLP <= 1015.3\nmse = 201.085\nsamples = 8\nvalue = 302.635", fillcolor="#eca16b"] ;
11 -> 13 ;
14 [label="mse = 0.0\nsamples = 1\nvalue = 278.0", fillcolor="#eda877"] ;
13 -> 14 ;
15 [label="VM <= 4.45\nmse = 130.726\nsamples = 7\nvalue = 306.155", fillcolor="#eba069"] ;
13 -> 15 ;
16 [label="mse = 0.0\nsamples = 1\nvalue = 278.333", fillcolor="#eda877"] ;
15 -> 16 ;
17 [label="H <= 73.0\nmse = 2.007\nsamples = 6\nvalue = 310.792", fillcolor="#eb9e67"] ;
15 -> 17 ;
18 [label="mse = 0.0\nsamples = 3\nvalue = 309.375", fillcolor="#eb9f68"] ;
17 -> 18 ;
19 [label="mse = -0.0\nsamples = 3\nvalue = 312.208", fillcolor="#eb9e66"] ;
17 -> 19 ;
20 [label="T <= 17.2\nmse = 1384.397\nsamples = 4\nvalue = 250.925", fillcolor="#efb184"] ;
10 -> 20 ;
21 [label="V <= 1.15\nmse = 320.093\nsamples = 3\nvalue = 270.456", fillcolor="#eeab7b"] ;
20 -> 21 ;
22 [label="TM <= 19.25\nmse = 33.11\nsamples = 2\nvalue = 282.662", fillcolor="#eda775"] ;
21 -> 22 ;
23 [label="mse = 0.0\nsamples = 1\nvalue = 288.417", fillcolor="#eca572"] ;
22 -> 23 ;
24 [label="mse = 0.0\nsamples = 1\nvalue = 276.908", fillcolor="#eda977"] ;
22 -> 24 ;
25 [label="mse = 0.0\nsamples = 1\nvalue = 246.042", fillcolor="#efb287"] ;
21 -> 25 ;
26 [label="mse = -0.0\nsamples = 1\nvalue = 192.333", fillcolor="#f3c3a1"] ;
20 -> 26 ;
27 [label="V <= 1.1\nmse = 1800.619\nsamples = 7\nvalue = 342.723", fillcolor="#e99457"] ;
5 -> 27 ;
28 [label="SLP <= 1017.15\nmse = 288.243\nsamples = 4\nvalue = 375.094", fillcolor="#e78a47"] ;
27 -> 28 ;
29 [label="mse = 0.0\nsamples = 3\nvalue = 365.292", fillcolor="#e88d4c"] ;
28 -> 29 ;
30 [label="mse = 0.0\nsamples = 1\nvalue = 404.5", fillcolor="#e58139"] ;
28 -> 30 ;
31 [label="H <= 80.5\nmse = 557.019\nsamples = 3\nvalue = 299.561", fillcolor="#eca26c"] ;
27 -> 31 ;
32 [label="VM <= 8.5\nmse = 11.475\nsamples = 2\nvalue = 282.988", fillcolor="#eda774"] ;
31 -> 32 ;
33 [label="mse = 0.0\nsamples = 1\nvalue = 286.375", fillcolor="#eda673"] ;
32 -> 33 ;
34 [label="mse = 0.0\nsamples = 1\nvalue = 279.6", fillcolor="#eda876"] ;
32 -> 34 ;
35 [label="mse = -0.0\nsamples = 1\nvalue = 332.708", fillcolor="#ea975c"] ;
31 -> 35 ;
36 [label="T <= 14.95\nmse = 6560.525\nsamples = 10\nvalue = 236.844", fillcolor="#f0b58b"] ;
4 -> 36 ;
37 [label="Tm <= 7.05\nmse = 3553.309\nsamples = 7\nvalue = 278.07", fillcolor="#eda877"] ;
36 -> 37 ;
38 [label="T <= 12.1\nmse = 1883.466\nsamples = 5\nvalue = 249.967", fillcolor="#efb185"] ;
37 -> 38 ;
39 [label="VM <= 4.45\nmse = 395.621\nsamples = 3\nvalue = 282.431", fillcolor="#eda775"] ;
38 -> 39 ;
40 [label="mse = 0.0\nsamples = 1\nvalue = 310.25", fillcolor="#eb9e67"] ;
39 -> 40 ;
41 [label="V <= 1.7\nmse = 12.99\nsamples = 2\nvalue = 268.521", fillcolor="#eeab7c"] ;
39 -> 41 ;
42 [label="mse = 0.0\nsamples = 1\nvalue = 272.125", fillcolor="#eeaa7a"] ;
41 -> 42 ;
43 [label="mse = 0.0\nsamples = 1\nvalue = 264.917", fillcolor="#eeac7d"] ;
41 -> 43 ;
44 [label="TM <= 20.3\nmse = 163.094\nsamples = 2\nvalue = 201.271", fillcolor="#f2c09c"] ;
38 -> 44 ;
45 [label="mse = 0.0\nsamples = 1\nvalue = 214.042", fillcolor="#f1bc96"] ;
44 -> 45 ;
46 [label="mse = 0.0\nsamples = 1\nvalue = 188.5", fillcolor="#f3c4a3"] ;
44 -> 46 ;
47 [label="T <= 13.45\nmse = 817.364\nsamples = 2\nvalue = 348.327", fillcolor="#e99254"] ;
37 -> 47 ;
48 [label="mse = 0.0\nsamples = 1\nvalue = 376.917", fillcolor="#e78a47"] ;
47 -> 48 ;
49 [label="mse = 0.0\nsamples = 1\nvalue = 319.738", fillcolor="#ea9b62"] ;
47 -> 49 ;
50 [label="T <= 16.65\nmse = 358.45\nsamples = 3\nvalue = 140.65", fillcolor="#f6d3ba"] ;
36 -> 50 ;
51 [label="mse = 0.0\nsamples = 1\nvalue = 113.875", fillcolor="#f8dcc7"] ;
50 -> 51 ;
52 [label="mse = 0.0\nsamples = 2\nvalue = 154.038", fillcolor="#f5cfb4"] ;
50 -> 52 ;
53 [label="TM <= 30.85\nmse = 3115.35\nsamples = 23\nvalue = 207.111", fillcolor="#f2be9a"] ;
3 -> 53 ;
54 [label="H <= 69.5\nmse = 2852.388\nsamples = 18\nvalue = 220.977", fillcolor="#f1ba93"] ;
53 -> 54 ;
55 [label="TM <= 27.75\nmse = 1349.892\nsamples = 7\nvalue = 250.769", fillcolor="#efb184"] ;
54 -> 55 ;
56 [label="VM <= 4.45\nmse = 60.709\nsamples = 4\nvalue = 281.46", fillcolor="#eda775"] ;
55 -> 56 ;
57 [label="mse = 0.0\nsamples = 1\nvalue = 268.167", fillcolor="#eeab7c"] ;
56 -> 57 ;
58 [label="T <= 18.55\nmse = 2.402\nsamples = 3\nvalue = 285.892", fillcolor="#eda673"] ;
56 -> 58 ;
59 [label="mse = 0.0\nsamples = 2\nvalue = 284.796", fillcolor="#eda674"] ;
58 -> 59 ;
60 [label="mse = -0.0\nsamples = 1\nvalue = 288.083", fillcolor="#eca572"] ;
58 -> 60 ;
61 [label="T <= 17.8\nmse = 138.261\nsamples = 3\nvalue = 209.847", fillcolor="#f2be98"] ;
55 -> 61 ;
62 [label="Tm <= 9.15\nmse = 35.502\nsamples = 2\nvalue = 217.417", fillcolor="#f1bb95"] ;
61 -> 62 ;
63 [label="mse = 0.0\nsamples = 1\nvalue = 211.458", fillcolor="#f1bd97"] ;
62 -> 63 ;
64 [label="mse = -0.0\nsamples = 1\nvalue = 223.375", fillcolor="#f1b992"] ;
62 -> 64 ;
65 [label="mse = -0.0\nsamples = 1\nvalue = 194.708", fillcolor="#f2c2a0"] ;
61 -> 65 ;
66 [label="H <= 70.5\nmse = 2884.298\nsamples = 11\nvalue = 202.019", fillcolor="#f2c09c"] ;
54 -> 66 ;
67 [label="T <= 17.45\nmse = 7168.444\nsamples = 2\nvalue = 136.875", fillcolor="#f6d4bc"] ;
66 -> 67 ;
68 [label="mse = 0.0\nsamples = 1\nvalue = 221.542", fillcolor="#f1ba93"] ;
67 -> 68 ;
69 [label="mse = 0.0\nsamples = 1\nvalue = 52.208", fillcolor="#fcefe5"] ;
67 -> 69 ;
70 [label="VM <= 10.25\nmse = 779.647\nsamples = 9\nvalue = 216.495", fillcolor="#f1bc95"] ;
66 -> 70 ;
71 [label="H <= 81.5\nmse = 609.95\nsamples = 6\nvalue = 228.146", fillcolor="#f0b88f"] ;
70 -> 71 ;
72 [label="Tm <= 7.35\nmse = 28.369\nsamples = 4\nvalue = 244.99", fillcolor="#efb387"] ;
71 -> 72 ;
73 [label="mse = 0.0\nsamples = 1\nvalue = 253.292", fillcolor="#efb083"] ;
72 -> 73 ;
74 [label="VM <= 7.4\nmse = 7.193\nsamples = 3\nvalue = 242.222", fillcolor="#efb488"] ;
72 -> 74 ;
75 [label="SLP <= 1015.2\nmse = 1.891\nsamples = 2\nvalue = 240.5", fillcolor="#f0b489"] ;
74 -> 75 ;
76 [label="mse = 0.0\nsamples = 1\nvalue = 239.125", fillcolor="#f0b58a"] ;
75 -> 76 ;
77 [label="mse = 0.0\nsamples = 1\nvalue = 241.875", fillcolor="#efb489"] ;
75 -> 77 ;
78 [label="mse = 0.0\nsamples = 1\nvalue = 245.667", fillcolor="#efb287"] ;
74 -> 78 ;
79 [label="V <= 0.9\nmse = 70.84\nsamples = 2\nvalue = 194.458", fillcolor="#f3c2a0"] ;
71 -> 79 ;
80 [label="mse = 0.0\nsamples = 1\nvalue = 202.875", fillcolor="#f2c09c"] ;
79 -> 80 ;
81 [label="mse = 0.0\nsamples = 1\nvalue = 186.042", fillcolor="#f3c5a4"] ;
79 -> 81 ;
82 [label="TM <= 25.0\nmse = 304.642\nsamples = 3\nvalue = 193.194", fillcolor="#f3c3a0"] ;
70 -> 82 ;
83 [label="mse = 0.0\nsamples = 1\nvalue = 217.25", fillcolor="#f1bb95"] ;
82 -> 83 ;
84 [label="Tm <= 9.5\nmse = 22.96\nsamples = 2\nvalue = 181.167", fillcolor="#f3c7a6"] ;
82 -> 84 ;
85 [label="mse = 0.0\nsamples = 1\nvalue = 185.958", fillcolor="#f3c5a4"] ;
84 -> 85 ;
86 [label="mse = -0.0\nsamples = 1\nvalue = 176.375", fillcolor="#f4c8a9"] ;
84 -> 86 ;
87 [label="TM <= 31.85\nmse = 877.884\nsamples = 5\nvalue = 157.192", fillcolor="#f5ceb2"] ;
53 -> 87 ;
88 [label="mse = 0.0\nsamples = 1\nvalue = 99.708", fillcolor="#f9e0ce"] ;
87 -> 88 ;
89 [label="T <= 23.95\nmse = 64.751\nsamples = 4\nvalue = 171.563", fillcolor="#f4caab"] ;
87 -> 89 ;
90 [label="mse = 0.0\nsamples = 3\nvalue = 166.917", fillcolor="#f4cbad"] ;
89 -> 90 ;
91 [label="mse = 0.0\nsamples = 1\nvalue = 185.5", fillcolor="#f3c5a4"] ;
89 -> 91 ;
92 [label="Tm <= 11.55\nmse = 3311.999\nsamples = 98\nvalue = 205.046", fillcolor="#f2bf9b"] ;
2 -> 92 ;
93 [label="V <= 9.15\nmse = 2715.623\nsamples = 63\nvalue = 187.427", fillcolor="#f3c5a3"] ;
92 -> 93 ;
94 [label="SLP <= 1021.1\nmse = 2395.374\nsamples = 56\nvalue = 180.97", fillcolor="#f3c7a6"] ;
93 -> 94 ;
95 [label="Tm <= 6.15\nmse = 1860.187\nsamples = 54\nvalue = 183.92", fillcolor="#f3c6a5"] ;
94 -> 95 ;
96 [label="V <= 3.55\nmse = 368.92\nsamples = 8\nvalue = 216.366", fillcolor="#f1bc95"] ;
95 -> 96 ;
97 [label="mse = 0.0\nsamples = 1\nvalue = 248.958", fillcolor="#efb185"] ;
96 -> 97 ;
98 [label="SLP <= 1018.2\nmse = 248.194\nsamples = 7\nvalue = 211.71", fillcolor="#f1bd97"] ;
96 -> 98 ;
99 [label="TM <= 20.35\nmse = 133.82\nsamples = 4\nvalue = 219.581", fillcolor="#f1bb94"] ;
98 -> 99 ;
100 [label="H <= 87.0\nmse = 19.072\nsamples = 3\nvalue = 225.893", fillcolor="#f0b990"] ;
99 -> 100 ;
101 [label="T <= 12.5\nmse = 0.035\nsamples = 2\nvalue = 228.979", fillcolor="#f0b88f"] ;
100 -> 101 ;
102 [label="mse = 0.0\nsamples = 1\nvalue = 228.792", fillcolor="#f0b88f"] ;
101 -> 102 ;
103 [label="mse = 0.0\nsamples = 1\nvalue = 229.167", fillcolor="#f0b88f"] ;
101 -> 103 ;
104 [label="mse = 0.0\nsamples = 1\nvalue = 219.721", fillcolor="#f1bb93"] ;
100 -> 104 ;
105 [label="mse = 0.0\nsamples = 1\nvalue = 200.646", fillcolor="#f2c09d"] ;
99 -> 105 ;
106 [label="V <= 6.2\nmse = 207.945\nsamples = 3\nvalue = 201.215", fillcolor="#f2c09d"] ;
98 -> 106 ;
107 [label="mse = 0.0\nsamples = 1\nvalue = 182.188", fillcolor="#f3c6a6"] ;
106 -> 107 ;
108 [label="H <= 82.5\nmse = 40.375\nsamples = 2\nvalue = 210.729", fillcolor="#f1bd98"] ;
106 -> 108 ;
109 [label="mse = 0.0\nsamples = 1\nvalue = 217.083", fillcolor="#f1bb95"] ;
108 -> 109 ;
110 [label="mse = -0.0\nsamples = 1\nvalue = 204.375", fillcolor="#f2bf9b"] ;
108 -> 110 ;
111 [label="T <= 15.0\nmse = 1904.609\nsamples = 46\nvalue = 178.277", fillcolor="#f4c7a8"] ;
95 -> 111 ;
112 [label="T <= 11.8\nmse = 1030.029\nsamples = 25\nvalue = 161.948", fillcolor="#f5cdb0"] ;
111 -> 112 ;
113 [label="H <= 83.0\nmse = 360.581\nsamples = 4\nvalue = 197.985", fillcolor="#f2c19e"] ;
112 -> 113 ;
114 [label="mse = 0.0\nsamples = 2\nvalue = 181.012", fillcolor="#f3c7a6"] ;
113 -> 114 ;
115 [label="Tm <= 7.9\nmse = 145.002\nsamples = 2\nvalue = 214.958", fillcolor="#f1bc96"] ;
113 -> 115 ;
116 [label="mse = 0.0\nsamples = 1\nvalue = 227.0", fillcolor="#f0b890"] ;
115 -> 116 ;
117 [label="mse = 0.0\nsamples = 1\nvalue = 202.917", fillcolor="#f2c09c"] ;
115 -> 117 ;
118 [label="T <= 12.05\nmse = 863.052\nsamples = 21\nvalue = 155.084", fillcolor="#f5cfb3"] ;
112 -> 118 ;
119 [label="VV <= 1.2\nmse = 74.149\nsamples = 3\nvalue = 113.714", fillcolor="#f8dcc7"] ;
118 -> 119 ;
120 [label="mse = 0.0\nsamples = 2\nvalue = 107.625", fillcolor="#f8ddca"] ;
119 -> 120 ;
121 [label="mse = -0.0\nsamples = 1\nvalue = 125.892", fillcolor="#f7d8c1"] ;
119 -> 121 ;
122 [label="SLP <= 1016.5\nmse = 661.754\nsamples = 18\nvalue = 161.978", fillcolor="#f5cdb0"] ;
118 -> 122 ;
123 [label="T <= 13.45\nmse = 431.391\nsamples = 8\nvalue = 144.31", fillcolor="#f6d2b8"] ;
122 -> 123 ;
124 [label="VM <= 8.5\nmse = 222.334\nsamples = 3\nvalue = 122.486", fillcolor="#f7d9c3"] ;
123 -> 124 ;
125 [label="mse = 0.0\nsamples = 1\nvalue = 143.0", fillcolor="#f6d2b9"] ;
124 -> 125 ;
126 [label="SLP <= 1013.8\nmse = 17.886\nsamples = 2\nvalue = 112.229", fillcolor="#f8dcc8"] ;
124 -> 126 ;
127 [label="mse = 0.0\nsamples = 1\nvalue = 116.458", fillcolor="#f8dbc6"] ;
126 -> 127 ;
128 [label="mse = 0.0\nsamples = 1\nvalue = 108.0", fillcolor="#f8ddca"] ;
126 -> 128 ;
129 [label="Tm <= 10.5\nmse = 99.577\nsamples = 5\nvalue = 157.405", fillcolor="#f5ceb2"] ;
123 -> 129 ;
130 [label="T <= 14.2\nmse = 16.579\nsamples = 3\nvalue = 149.675", fillcolor="#f5d0b6"] ;
129 -> 130 ;
131 [label="mse = 0.0\nsamples = 1\nvalue = 143.917", fillcolor="#f6d2b9"] ;
130 -> 131 ;
132 [label="mse = 0.0\nsamples = 2\nvalue = 152.554", fillcolor="#f5cfb4"] ;
130 -> 132 ;
133 [label="mse = 0.0\nsamples = 2\nvalue = 169.0", fillcolor="#f4caac"] ;
129 -> 133 ;
134 [label="V <= 4.65\nmse = 396.534\nsamples = 10\nvalue = 176.113", fillcolor="#f4c8a9"] ;
122 -> 134 ;
135 [label="V <= 2.95\nmse = 117.815\nsamples = 3\nvalue = 150.111", fillcolor="#f5d0b6"] ;
134 -> 135 ;
136 [label="mse = 0.0\nsamples = 1\nvalue = 164.75", fillcolor="#f4ccae"] ;
135 -> 136 ;
137 [label="TM <= 19.95\nmse = 16.0\nsamples = 2\nvalue = 142.792", fillcolor="#f6d3b9"] ;
135 -> 137 ;
138 [label="mse = 0.0\nsamples = 1\nvalue = 138.792", fillcolor="#f6d4bb"] ;
137 -> 138 ;
139 [label="mse = 0.0\nsamples = 1\nvalue = 146.792", fillcolor="#f6d1b7"] ;
137 -> 139 ;
140 [label="Tm <= 8.5\nmse = 102.049\nsamples = 7\nvalue = 187.257", fillcolor="#f3c5a3"] ;
134 -> 140 ;
141 [label="T <= 13.8\nmse = 2.263\nsamples = 5\nvalue = 180.959", fillcolor="#f3c7a6"] ;
140 -> 141 ;
142 [label="mse = 0.0\nsamples = 2\nvalue = 179.117", fillcolor="#f3c7a7"] ;
141 -> 142 ;
143 [label="mse = -0.0\nsamples = 3\nvalue = 182.188", fillcolor="#f3c6a6"] ;
141 -> 143 ;
144 [label="SLP <= 1018.3\nmse = 4.516\nsamples = 2\nvalue = 203.0", fillcolor="#f2c09c"] ;
140 -> 144 ;
145 [label="mse = 0.0\nsamples = 1\nvalue = 200.875", fillcolor="#f2c09d"] ;
144 -> 145 ;
146 [label="mse = 0.0\nsamples = 1\nvalue = 205.125", fillcolor="#f2bf9b"] ;
144 -> 146 ;
147 [label="VV <= 1.2\nmse = 2250.438\nsamples = 21\nvalue = 197.717", fillcolor="#f2c19e"] ;
111 -> 147 ;
148 [label="H <= 78.5\nmse = 938.036\nsamples = 14\nvalue = 216.403", fillcolor="#f1bc95"] ;
147 -> 148 ;
149 [label="H <= 76.0\nmse = 329.246\nsamples = 10\nvalue = 201.06", fillcolor="#f2c09d"] ;
148 -> 149 ;
150 [label="VV <= 1.05\nmse = 206.335\nsamples = 4\nvalue = 219.264", fillcolor="#f1bb94"] ;
149 -> 150 ;
151 [label="VM <= 14.7\nmse = 37.516\nsamples = 2\nvalue = 230.292", fillcolor="#f0b78e"] ;
150 -> 151 ;
152 [label="mse = 0.0\nsamples = 1\nvalue = 224.167", fillcolor="#f1b991"] ;
151 -> 152 ;
153 [label="mse = -0.0\nsamples = 1\nvalue = 236.417", fillcolor="#f0b58b"] ;
151 -> 153 ;
154 [label="H <= 69.5\nmse = 131.915\nsamples = 2\nvalue = 208.235", fillcolor="#f2be99"] ;
150 -> 154 ;
155 [label="mse = 0.0\nsamples = 1\nvalue = 196.75", fillcolor="#f2c29f"] ;
154 -> 155 ;
156 [label="mse = 0.0\nsamples = 1\nvalue = 219.721", fillcolor="#f1bb93"] ;
154 -> 156 ;
157 [label="T <= 16.05\nmse = 42.983\nsamples = 6\nvalue = 188.924", fillcolor="#f3c4a3"] ;
149 -> 157 ;
158 [label="mse = 0.0\nsamples = 1\nvalue = 203.583", fillcolor="#f2c09b"] ;
157 -> 158 ;
159 [label="T <= 17.6\nmse = 0.002\nsamples = 5\nvalue = 185.992", fillcolor="#f3c5a4"] ;
157 -> 159 ;
160 [label="mse = 0.0\nsamples = 2\nvalue = 186.042", fillcolor="#f3c5a4"] ;
159 -> 160 ;
161 [label="mse = -0.0\nsamples = 3\nvalue = 185.958", fillcolor="#f3c5a4"] ;
159 -> 161 ;
162 [label="TM <= 24.05\nmse = 400.169\nsamples = 4\nvalue = 254.76", fillcolor="#efb082"] ;
148 -> 162 ;
163 [label="mse = 0.0\nsamples = 2\nvalue = 236.825", fillcolor="#f0b58b"] ;
162 -> 163 ;
164 [label="V <= 3.7\nmse = 156.98\nsamples = 2\nvalue = 272.696", fillcolor="#edaa7a"] ;
162 -> 164 ;
165 [label="mse = 0.0\nsamples = 1\nvalue = 260.167", fillcolor="#eeae80"] ;
164 -> 165 ;
166 [label="mse = -0.0\nsamples = 1\nvalue = 285.225", fillcolor="#eda673"] ;
164 -> 166 ;
167 [label="V <= 3.9\nmse = 2780.282\nsamples = 7\nvalue = 160.345", fillcolor="#f5cdb1"] ;
147 -> 167 ;
168 [label="TM <= 25.6\nmse = 1443.068\nsamples = 3\nvalue = 108.514", fillcolor="#f8ddca"] ;
167 -> 168 ;
169 [label="mse = 0.0\nsamples = 1\nvalue = 54.792", fillcolor="#fbeee4"] ;
168 -> 169 ;
170 [label="V <= 2.7\nmse = 0.043\nsamples = 2\nvalue = 135.375", fillcolor="#f6d5bd"] ;
168 -> 170 ;
171 [label="mse = 0.0\nsamples = 1\nvalue = 135.583", fillcolor="#f6d5bd"] ;
170 -> 171 ;
172 [label="mse = 0.0\nsamples = 1\nvalue = 135.167", fillcolor="#f6d5bd"] ;
170 -> 172 ;
173 [label="T <= 15.7\nmse = 257.177\nsamples = 4\nvalue = 199.219", fillcolor="#f2c19d"] ;
167 -> 173 ;
174 [label="mse = 0.0\nsamples = 1\nvalue = 224.792", fillcolor="#f1b991"] ;
173 -> 174 ;
175 [label="T <= 17.45\nmse = 52.247\nsamples = 3\nvalue = 190.694", fillcolor="#f3c4a2"] ;
173 -> 175 ;
176 [label="mse = -0.0\nsamples = 2\nvalue = 185.583", fillcolor="#f3c5a4"] ;
175 -> 176 ;
177 [label="mse = 0.0\nsamples = 1\nvalue = 200.917", fillcolor="#f2c09d"] ;
175 -> 177 ;
178 [label="Tm <= 9.25\nmse = 10268.444\nsamples = 2\nvalue = 101.333", fillcolor="#f8dfcd"] ;
94 -> 178 ;
179 [label="mse = 0.0\nsamples = 1\nvalue = 0.0", fillcolor="#ffffff"] ;
178 -> 179 ;
180 [label="mse = 0.0\nsamples = 1\nvalue = 202.667", fillcolor="#f2c09c"] ;
178 -> 180 ;
181 [label="SLP <= 1017.2\nmse = 2276.11\nsamples = 7\nvalue = 239.08", fillcolor="#f0b58a"] ;
93 -> 181 ;
182 [label="V <= 10.05\nmse = 9.878\nsamples = 4\nvalue = 278.723", fillcolor="#eda877"] ;
181 -> 182 ;
183 [label="mse = 0.0\nsamples = 1\nvalue = 284.167", fillcolor="#eda674"] ;
182 -> 183 ;
184 [label="mse = -0.0\nsamples = 3\nvalue = 276.908", fillcolor="#eda977"] ;
182 -> 184 ;
185 [label="TM <= 23.9\nmse = 408.394\nsamples = 3\nvalue = 186.222", fillcolor="#f3c5a4"] ;
181 -> 185 ;
186 [label="SLP <= 1019.1\nmse = 28.667\nsamples = 2\nvalue = 172.271", fillcolor="#f4c9ab"] ;
185 -> 186 ;
187 [label="mse = 0.0\nsamples = 1\nvalue = 177.625", fillcolor="#f4c8a8"] ;
186 -> 187 ;
188 [label="mse = 0.0\nsamples = 1\nvalue = 166.917", fillcolor="#f4cbad"] ;
186 -> 188 ;
189 [label="mse = 0.0\nsamples = 1\nvalue = 214.125", fillcolor="#f1bc96"] ;
185 -> 189 ;
190 [label="V <= 4.35\nmse = 2820.937\nsamples = 35\nvalue = 236.76", fillcolor="#f0b58b"] ;
92 -> 190 ;
191 [label="H <= 71.5\nmse = 1489.616\nsamples = 12\nvalue = 202.83", fillcolor="#f2c09c"] ;
190 -> 191 ;
192 [label="VV <= 0.9\nmse = 691.847\nsamples = 7\nvalue = 227.744", fillcolor="#f0b890"] ;
191 -> 192 ;
193 [label="mse = 0.0\nsamples = 1\nvalue = 272.417", fillcolor="#edaa7a"] ;
192 -> 193 ;
194 [label="TM <= 28.35\nmse = 419.113\nsamples = 6\nvalue = 220.299", fillcolor="#f1ba93"] ;
192 -> 194 ;
195 [label="mse = 0.0\nsamples = 1\nvalue = 257.667", fillcolor="#eeaf81"] ;
194 -> 195 ;
196 [label="SLP <= 1013.55\nmse = 167.807\nsamples = 5\nvalue = 212.825", fillcolor="#f1bd97"] ;
194 -> 196 ;
197 [label="SLP <= 1012.4\nmse = 3.917\nsamples = 2\nvalue = 198.521", fillcolor="#f2c19e"] ;
196 -> 197 ;
198 [label="mse = 0.0\nsamples = 1\nvalue = 200.5", fillcolor="#f2c19d"] ;
197 -> 198 ;
199 [label="mse = 0.0\nsamples = 1\nvalue = 196.542", fillcolor="#f2c29f"] ;
197 -> 199 ;
200 [label="H <= 61.0\nmse = 49.723\nsamples = 3\nvalue = 222.361", fillcolor="#f1ba92"] ;
196 -> 200 ;
201 [label="mse = 0.0\nsamples = 2\nvalue = 217.375", fillcolor="#f1bb95"] ;
200 -> 201 ;
202 [label="mse = -0.0\nsamples = 1\nvalue = 232.333", fillcolor="#f0b78d"] ;
200 -> 202 ;
203 [label="VM <= 11.2\nmse = 520.885\nsamples = 5\nvalue = 167.95", fillcolor="#f4cbad"] ;
191 -> 203 ;
204 [label="Tm <= 12.2\nmse = 23.206\nsamples = 4\nvalue = 179.156", fillcolor="#f3c7a7"] ;
203 -> 204 ;
205 [label="mse = 0.0\nsamples = 3\nvalue = 176.375", fillcolor="#f4c8a9"] ;
204 -> 205 ;
206 [label="mse = 0.0\nsamples = 1\nvalue = 187.5", fillcolor="#f3c5a3"] ;
204 -> 206 ;
207 [label="mse = 0.0\nsamples = 1\nvalue = 123.125", fillcolor="#f7d9c3"] ;
203 -> 207 ;
208 [label="V <= 7.9\nmse = 2601.506\nsamples = 23\nvalue = 254.462", fillcolor="#efb082"] ;
190 -> 208 ;
209 [label="VM <= 17.4\nmse = 2394.55\nsamples = 17\nvalue = 270.942", fillcolor="#eeab7a"] ;
208 -> 209 ;
210 [label="VV <= 0.7\nmse = 1734.911\nsamples = 10\nvalue = 242.838", fillcolor="#efb388"] ;
209 -> 210 ;
211 [label="H <= 85.0\nmse = 0.21\nsamples = 4\nvalue = 284.96", fillcolor="#eda674"] ;
210 -> 211 ;
212 [label="mse = -0.0\nsamples = 3\nvalue = 285.225", fillcolor="#eda673"] ;
211 -> 212 ;
213 [label="mse = 0.0\nsamples = 1\nvalue = 284.167", fillcolor="#eda674"] ;
211 -> 213 ;
214 [label="T <= 19.2\nmse = 919.967\nsamples = 6\nvalue = 214.757", fillcolor="#f1bc96"] ;
210 -> 214 ;
215 [label="mse = 0.0\nsamples = 1\nvalue = 149.625", fillcolor="#f5d0b6"] ;
214 -> 215 ;
216 [label="T <= 22.05\nmse = 85.84\nsamples = 5\nvalue = 227.783", fillcolor="#f0b890"] ;
214 -> 216 ;
217 [label="mse = -0.0\nsamples = 3\nvalue = 235.333", fillcolor="#f0b68c"] ;
216 -> 217 ;
218 [label="Tm <= 16.45\nmse = 0.84\nsamples = 2\nvalue = 216.458", fillcolor="#f1bc95"] ;
216 -> 218 ;
219 [label="mse = 0.0\nsamples = 1\nvalue = 217.375", fillcolor="#f1bb95"] ;
218 -> 219 ;
220 [label="mse = 0.0\nsamples = 1\nvalue = 215.542", fillcolor="#f1bc95"] ;
218 -> 220 ;
221 [label="T <= 22.75\nmse = 596.731\nsamples = 7\nvalue = 311.09", fillcolor="#eb9e67"] ;
209 -> 221 ;
222 [label="V <= 5.85\nmse = 222.257\nsamples = 5\nvalue = 324.326", fillcolor="#ea9a60"] ;
221 -> 222 ;
223 [label="mse = 0.0\nsamples = 1\nvalue = 353.042", fillcolor="#e89152"] ;
222 -> 223 ;
224 [label="VV <= 0.95\nmse = 20.134\nsamples = 4\nvalue = 317.147", fillcolor="#eb9c64"] ;
222 -> 224 ;
225 [label="mse = 0.0\nsamples = 1\nvalue = 309.375", fillcolor="#eb9f68"] ;
224 -> 225 ;
226 [label="mse = 0.0\nsamples = 3\nvalue = 319.738", fillcolor="#ea9b62"] ;
224 -> 226 ;
227 [label="mse = 0.0\nsamples = 2\nvalue = 278.0", fillcolor="#eda877"] ;
221 -> 227 ;
228 [label="Tm <= 13.8\nmse = 238.316\nsamples = 6\nvalue = 207.771", fillcolor="#f2be99"] ;
208 -> 228 ;
229 [label="mse = 0.0\nsamples = 3\nvalue = 223.208", fillcolor="#f1b992"] ;
228 -> 229 ;
230 [label="mse = 0.0\nsamples = 3\nvalue = 192.333", fillcolor="#f3c3a1"] ;
228 -> 230 ;
231 [label="Tm <= 11.3\nmse = 6659.996\nsamples = 141\nvalue = 148.264", fillcolor="#f5d1b6"] ;
1 -> 231 ;
232 [label="H <= 59.0\nmse = 7703.568\nsamples = 65\nvalue = 188.836", fillcolor="#f3c4a3"] ;
231 -> 232 ;
233 [label="H <= 57.0\nmse = 6676.718\nsamples = 21\nvalue = 262.015", fillcolor="#eead7f"] ;
232 -> 233 ;
234 [label="VM <= 12.95\nmse = 3871.882\nsamples = 18\nvalue = 238.358", fillcolor="#f0b58a"] ;
233 -> 234 ;
235 [label="V <= 4.25\nmse = 249.377\nsamples = 2\nvalue = 95.083", fillcolor="#f9e1d0"] ;
234 -> 235 ;
236 [label="mse = 0.0\nsamples = 1\nvalue = 110.875", fillcolor="#f8dcc9"] ;
235 -> 236 ;
237 [label="mse = 0.0\nsamples = 1\nvalue = 79.292", fillcolor="#fae6d8"] ;
235 -> 237 ;
238 [label="H <= 53.0\nmse = 1437.983\nsamples = 16\nvalue = 256.268", fillcolor="#efaf82"] ;
234 -> 238 ;
239 [label="mse = 0.0\nsamples = 1\nvalue = 119.708", fillcolor="#f7dac4"] ;
238 -> 239 ;
240 [label="VM <= 17.4\nmse = 207.736\nsamples = 15\nvalue = 265.372", fillcolor="#eeac7d"] ;
238 -> 240 ;
241 [label="VM <= 15.65\nmse = 0.028\nsamples = 6\nvalue = 251.042", fillcolor="#efb184"] ;
240 -> 241 ;
242 [label="mse = 0.0\nsamples = 3\nvalue = 250.875", fillcolor="#efb184"] ;
241 -> 242 ;
243 [label="mse = -0.0\nsamples = 3\nvalue = 251.208", fillcolor="#efb184"] ;
241 -> 243 ;
244 [label="H <= 55.0\nmse = 118.043\nsamples = 9\nvalue = 274.925", fillcolor="#eda978"] ;
240 -> 244 ;
245 [label="Tm <= 10.75\nmse = 78.12\nsamples = 5\nvalue = 267.658", fillcolor="#eeac7c"] ;
244 -> 245 ;
246 [label="mse = 0.0\nsamples = 2\nvalue = 256.833", fillcolor="#eeaf81"] ;
245 -> 246 ;
247 [label="mse = -0.0\nsamples = 3\nvalue = 274.875", fillcolor="#eda978"] ;
245 -> 247 ;
248 [label="Tm <= 8.9\nmse = 19.433\nsamples = 4\nvalue = 284.008", fillcolor="#eda774"] ;
244 -> 248 ;
249 [label="mse = 0.0\nsamples = 2\nvalue = 279.6", fillcolor="#eda876"] ;
248 -> 249 ;
250 [label="mse = -0.0\nsamples = 2\nvalue = 288.417", fillcolor="#eca572"] ;
248 -> 250 ;
251 [label="mse = -0.0\nsamples = 3\nvalue = 403.958", fillcolor="#e58139"] ;
233 -> 251 ;
252 [label="H <= 68.5\nmse = 4417.917\nsamples = 44\nvalue = 153.91", fillcolor="#f5cfb4"] ;
232 -> 252 ;
253 [label="SLP <= 1017.05\nmse = 3947.536\nsamples = 31\nvalue = 177.025", fillcolor="#f4c8a8"] ;
252 -> 253 ;
254 [label="H <= 65.5\nmse = 1232.117\nsamples = 18\nvalue = 147.708", fillcolor="#f6d1b7"] ;
253 -> 254 ;
255 [label="VV <= 1.85\nmse = 956.805\nsamples = 10\nvalue = 165.078", fillcolor="#f4ccae"] ;
254 -> 255 ;
256 [label="V <= 2.15\nmse = 62.169\nsamples = 5\nvalue = 193.965", fillcolor="#f3c3a0"] ;
255 -> 256 ;
257 [label="mse = 0.0\nsamples = 1\nvalue = 179.117", fillcolor="#f3c7a7"] ;
256 -> 257 ;
258 [label="TM <= 25.6\nmse = 8.813\nsamples = 4\nvalue = 197.677", fillcolor="#f2c19e"] ;
256 -> 258 ;
259 [label="mse = 0.0\nsamples = 2\nvalue = 200.646", fillcolor="#f2c09d"] ;
258 -> 259 ;
260 [label="mse = 0.0\nsamples = 2\nvalue = 194.708", fillcolor="#f2c2a0"] ;
258 -> 260 ;
261 [label="TM <= 22.7\nmse = 182.562\nsamples = 5\nvalue = 136.192", fillcolor="#f6d5bc"] ;
255 -> 261 ;
262 [label="mse = 0.0\nsamples = 1\nvalue = 163.0", fillcolor="#f5ccaf"] ;
261 -> 262 ;
263 [label="Tm <= 10.25\nmse = 3.612\nsamples = 4\nvalue = 129.49", fillcolor="#f7d7c0"] ;
261 -> 263 ;
264 [label="mse = 0.0\nsamples = 2\nvalue = 127.708", fillcolor="#f7d7c0"] ;
263 -> 264 ;
265 [label="T <= 17.9\nmse = 0.879\nsamples = 2\nvalue = 131.271", fillcolor="#f7d6bf"] ;
263 -> 265 ;
266 [label="mse = 0.0\nsamples = 1\nvalue = 132.208", fillcolor="#f7d6be"] ;
265 -> 266 ;
267 [label="mse = 0.0\nsamples = 1\nvalue = 130.333", fillcolor="#f7d6bf"] ;
265 -> 267 ;
268 [label="VM <= 12.95\nmse = 727.634\nsamples = 8\nvalue = 125.995", fillcolor="#f7d8c1"] ;
254 -> 268 ;
269 [label="TM <= 26.85\nmse = 332.148\nsamples = 4\nvalue = 149.677", fillcolor="#f5d0b6"] ;
268 -> 269 ;
270 [label="Tm <= 8.95\nmse = 22.329\nsamples = 3\nvalue = 159.931", fillcolor="#f5cdb1"] ;
269 -> 270 ;
271 [label="TM <= 24.1\nmse = 3.674\nsamples = 2\nvalue = 163.083", fillcolor="#f5ccaf"] ;
270 -> 271 ;
272 [label="mse = 0.0\nsamples = 1\nvalue = 165.0", fillcolor="#f4ccae"] ;
271 -> 272 ;
273 [label="mse = 0.0\nsamples = 1\nvalue = 161.167", fillcolor="#f5cdb0"] ;
271 -> 273 ;
274 [label="mse = -0.0\nsamples = 1\nvalue = 153.625", fillcolor="#f5cfb4"] ;
270 -> 274 ;
275 [label="mse = 0.0\nsamples = 1\nvalue = 118.917", fillcolor="#f7dac5"] ;
269 -> 275 ;
276 [label="SLP <= 1013.4\nmse = 1.418\nsamples = 4\nvalue = 102.312", fillcolor="#f8dfcd"] ;
268 -> 276 ;
277 [label="mse = 0.0\nsamples = 1\nvalue = 100.25", fillcolor="#f9e0ce"] ;
276 -> 277 ;
278 [label="mse = 0.0\nsamples = 3\nvalue = 103.0", fillcolor="#f8dfcd"] ;
276 -> 278 ;
279 [label="SLP <= 1017.8\nmse = 4869.438\nsamples = 13\nvalue = 217.619", fillcolor="#f1bb94"] ;
253 -> 279 ;
280 [label="V <= 5.8\nmse = 5132.474\nsamples = 5\nvalue = 264.5", fillcolor="#eead7e"] ;
279 -> 280 ;
281 [label="mse = 0.0\nsamples = 1\nvalue = 136.75", fillcolor="#f6d4bc"] ;
280 -> 281 ;
282 [label="SLP <= 1017.35\nmse = 1315.573\nsamples = 4\nvalue = 296.438", fillcolor="#eca36e"] ;
280 -> 282 ;
283 [label="mse = 0.0\nsamples = 2\nvalue = 260.167", fillcolor="#eeae80"] ;
282 -> 283 ;
284 [label="mse = -0.0\nsamples = 2\nvalue = 332.708", fillcolor="#ea975c"] ;
282 -> 284 ;
285 [label="H <= 63.5\nmse = 2472.832\nsamples = 8\nvalue = 188.318", fillcolor="#f3c4a3"] ;
279 -> 285 ;
286 [label="Tm <= 6.3\nmse = 1008.922\nsamples = 6\nvalue = 164.437", fillcolor="#f4ccaf"] ;
285 -> 286 ;
287 [label="T <= 13.9\nmse = 196.88\nsamples = 3\nvalue = 191.032", fillcolor="#f3c3a1"] ;
286 -> 287 ;
288 [label="VM <= 18.5\nmse = 0.01\nsamples = 2\nvalue = 181.11", fillcolor="#f3c7a6"] ;
287 -> 288 ;
289 [label="mse = 0.0\nsamples = 1\nvalue = 181.208", fillcolor="#f3c7a6"] ;
288 -> 289 ;
290 [label="mse = 0.0\nsamples = 1\nvalue = 181.012", fillcolor="#f3c7a6"] ;
288 -> 290 ;
291 [label="mse = 0.0\nsamples = 1\nvalue = 210.875", fillcolor="#f1bd98"] ;
287 -> 291 ;
292 [label="TM <= 23.2\nmse = 406.435\nsamples = 3\nvalue = 137.843", fillcolor="#f6d4bc"] ;
286 -> 292 ;
293 [label="T <= 13.75\nmse = 0.05\nsamples = 2\nvalue = 152.098", fillcolor="#f5d0b5"] ;
292 -> 293 ;
294 [label="mse = 0.0\nsamples = 1\nvalue = 152.321", fillcolor="#f5d0b4"] ;
293 -> 294 ;
295 [label="mse = 0.0\nsamples = 1\nvalue = 151.875", fillcolor="#f5d0b5"] ;
293 -> 295 ;
296 [label="mse = 0.0\nsamples = 1\nvalue = 109.333", fillcolor="#f8ddc9"] ;
292 -> 296 ;
297 [label="TM <= 21.75\nmse = 21.391\nsamples = 2\nvalue = 259.958", fillcolor="#eeae80"] ;
285 -> 297 ;
298 [label="mse = 0.0\nsamples = 1\nvalue = 264.583", fillcolor="#eead7d"] ;
297 -> 298 ;
299 [label="mse = 0.0\nsamples = 1\nvalue = 255.333", fillcolor="#efaf82"] ;
297 -> 299 ;
300 [label="SLP <= 1014.9\nmse = 1227.11\nsamples = 13\nvalue = 98.789", fillcolor="#f9e0cf"] ;
252 -> 300 ;
301 [label="VM <= 15.8\nmse = 180.042\nsamples = 4\nvalue = 144.574", fillcolor="#f6d2b8"] ;
300 -> 301 ;
302 [label="mse = -0.0\nsamples = 3\nvalue = 152.321", fillcolor="#f5d0b4"] ;
301 -> 302 ;
303 [label="mse = 0.0\nsamples = 1\nvalue = 121.333", fillcolor="#f7d9c4"] ;
301 -> 303 ;
304 [label="Tm <= 9.2\nmse = 346.713\nsamples = 9\nvalue = 78.44", fillcolor="#fae7d9"] ;
300 -> 304 ;
305 [label="Tm <= 7.85\nmse = 40.104\nsamples = 4\nvalue = 97.031", fillcolor="#f9e1d0"] ;
304 -> 305 ;
306 [label="mse = 0.0\nsamples = 1\nvalue = 108.0", fillcolor="#f8ddca"] ;
305 -> 306 ;
307 [label="mse = 0.0\nsamples = 3\nvalue = 93.375", fillcolor="#f9e2d1"] ;
305 -> 307 ;
308 [label="T <= 16.8\nmse = 94.275\nsamples = 5\nvalue = 63.567", fillcolor="#fbebe0"] ;
304 -> 308 ;
309 [label="Tm <= 9.9\nmse = 0.936\nsamples = 3\nvalue = 56.111", fillcolor="#fbeee4"] ;
308 -> 309 ;
310 [label="mse = 0.0\nsamples = 1\nvalue = 54.792", fillcolor="#fbeee4"] ;
309 -> 310 ;
311 [label="Tm <= 10.8\nmse = 0.098\nsamples = 2\nvalue = 56.771", fillcolor="#fbede3"] ;
309 -> 311 ;
312 [label="mse = 0.0\nsamples = 1\nvalue = 57.083", fillcolor="#fbede3"] ;
311 -> 312 ;
313 [label="mse = -0.0\nsamples = 1\nvalue = 56.458", fillcolor="#fbede3"] ;
311 -> 313 ;
314 [label="SLP <= 1016.8\nmse = 25.84\nsamples = 2\nvalue = 74.75", fillcolor="#fae8da"] ;
308 -> 314 ;
315 [label="mse = 0.0\nsamples = 1\nvalue = 79.833", fillcolor="#fae6d8"] ;
314 -> 315 ;
316 [label="mse = 0.0\nsamples = 1\nvalue = 69.667", fillcolor="#fbe9dd"] ;
314 -> 316 ;
317 [label="VV <= 1.85\nmse = 3155.45\nsamples = 76\nvalue = 113.563", fillcolor="#f8dcc7"] ;
231 -> 317 ;
318 [label="TM <= 30.15\nmse = 3694.342\nsamples = 26\nvalue = 147.7", fillcolor="#f6d1b7"] ;
317 -> 318 ;
319 [label="TM <= 29.9\nmse = 2769.203\nsamples = 20\nvalue = 130.798", fillcolor="#f7d6bf"] ;
318 -> 319 ;
320 [label="TM <= 26.65\nmse = 2127.819\nsamples = 16\nvalue = 144.169", fillcolor="#f6d2b8"] ;
319 -> 320 ;
321 [label="Tm <= 13.95\nmse = 366.212\nsamples = 3\nvalue = 72.542", fillcolor="#fae8db"] ;
320 -> 321 ;
322 [label="T <= 14.75\nmse = 4.254\nsamples = 2\nvalue = 59.062", fillcolor="#fbede2"] ;
321 -> 322 ;
323 [label="mse = 0.0\nsamples = 1\nvalue = 57.0", fillcolor="#fbede3"] ;
322 -> 323 ;
324 [label="mse = 0.0\nsamples = 1\nvalue = 61.125", fillcolor="#fbece1"] ;
322 -> 324 ;
325 [label="mse = 0.0\nsamples = 1\nvalue = 99.5", fillcolor="#f9e0ce"] ;
321 -> 325 ;
326 [label="H <= 61.5\nmse = 1077.156\nsamples = 13\nvalue = 160.699", fillcolor="#f5cdb0"] ;
320 -> 326 ;
327 [label="VM <= 16.65\nmse = 842.911\nsamples = 5\nvalue = 190.25", fillcolor="#f3c4a2"] ;
326 -> 327 ;
328 [label="V <= 4.45\nmse = 80.917\nsamples = 4\nvalue = 204.198", fillcolor="#f2bf9b"] ;
327 -> 328 ;
329 [label="T <= 19.6\nmse = 6.146\nsamples = 2\nvalue = 213.021", fillcolor="#f1bd97"] ;
328 -> 329 ;
330 [label="mse = 0.0\nsamples = 1\nvalue = 215.5", fillcolor="#f1bc96"] ;
329 -> 330 ;
331 [label="mse = 0.0\nsamples = 1\nvalue = 210.542", fillcolor="#f1bd98"] ;
329 -> 331 ;
332 [label="mse = 0.0\nsamples = 2\nvalue = 195.375", fillcolor="#f2c29f"] ;
328 -> 332 ;
333 [label="mse = -0.0\nsamples = 1\nvalue = 134.458", fillcolor="#f6d5bd"] ;
327 -> 333 ;
334 [label="SLP <= 1015.5\nmse = 336.636\nsamples = 8\nvalue = 142.229", fillcolor="#f6d3b9"] ;
326 -> 334 ;
335 [label="Tm <= 17.7\nmse = 217.626\nsamples = 6\nvalue = 149.785", fillcolor="#f5d0b6"] ;
334 -> 335 ;
336 [label="V <= 5.0\nmse = 9.528\nsamples = 3\nvalue = 164.361", fillcolor="#f4ccaf"] ;
335 -> 336 ;
337 [label="mse = 0.0\nsamples = 1\nvalue = 160.0", fillcolor="#f5cdb1"] ;
336 -> 337 ;
338 [label="VV <= 1.5\nmse = 0.028\nsamples = 2\nvalue = 166.542", fillcolor="#f4cbad"] ;
336 -> 338 ;
339 [label="mse = 0.0\nsamples = 1\nvalue = 166.708", fillcolor="#f4cbad"] ;
338 -> 339 ;
340 [label="mse = -0.0\nsamples = 1\nvalue = 166.375", fillcolor="#f4cbae"] ;
338 -> 340 ;
341 [label="SLP <= 1011.25\nmse = 0.781\nsamples = 3\nvalue = 135.208", fillcolor="#f6d5bd"] ;
335 -> 341 ;
342 [label="mse = 0.0\nsamples = 1\nvalue = 133.958", fillcolor="#f6d5bd"] ;
341 -> 342 ;
343 [label="mse = 0.0\nsamples = 2\nvalue = 135.833", fillcolor="#f6d5bd"] ;
341 -> 343 ;
344 [label="T <= 20.35\nmse = 8.629\nsamples = 2\nvalue = 119.562", fillcolor="#f7dac4"] ;
334 -> 344 ;
345 [label="mse = 0.0\nsamples = 1\nvalue = 122.5", fillcolor="#f7d9c3"] ;
344 -> 345 ;
346 [label="mse = 0.0\nsamples = 1\nvalue = 116.625", fillcolor="#f8dbc6"] ;
344 -> 346 ;
347 [label="Tm <= 16.15\nmse = 1758.876\nsamples = 4\nvalue = 77.312", fillcolor="#fae7d9"] ;
319 -> 347 ;
348 [label="V <= 6.5\nmse = 21.125\nsamples = 3\nvalue = 53.208", fillcolor="#fceee5"] ;
347 -> 348 ;
349 [label="mse = 0.0\nsamples = 2\nvalue = 56.458", fillcolor="#fbede3"] ;
348 -> 349 ;
350 [label="mse = 0.0\nsamples = 1\nvalue = 46.708", fillcolor="#fcf0e8"] ;
348 -> 350 ;
351 [label="mse = 0.0\nsamples = 1\nvalue = 149.625", fillcolor="#f5d0b6"] ;
347 -> 351 ;
352 [label="T <= 23.6\nmse = 2651.488\nsamples = 6\nvalue = 204.042", fillcolor="#f2bf9b"] ;
318 -> 352 ;
353 [label="TM <= 31.6\nmse = 569.279\nsamples = 5\nvalue = 224.908", fillcolor="#f1b991"] ;
352 -> 353 ;
354 [label="VV <= 1.5\nmse = 215.964\nsamples = 4\nvalue = 234.865", fillcolor="#f0b68c"] ;
353 -> 354 ;
355 [label="T <= 22.8\nmse = 76.928\nsamples = 2\nvalue = 248.188", fillcolor="#efb286"] ;
354 -> 355 ;
356 [label="mse = 0.0\nsamples = 1\nvalue = 239.417", fillcolor="#f0b48a"] ;
355 -> 356 ;
357 [label="mse = -0.0\nsamples = 1\nvalue = 256.958", fillcolor="#eeaf81"] ;
355 -> 357 ;
358 [label="mse = 0.0\nsamples = 2\nvalue = 221.542", fillcolor="#f1ba93"] ;
354 -> 358 ;
359 [label="mse = -0.0\nsamples = 1\nvalue = 185.083", fillcolor="#f3c5a4"] ;
353 -> 359 ;
360 [label="mse = 0.0\nsamples = 1\nvalue = 99.708", fillcolor="#f9e0ce"] ;
352 -> 360 ;
361 [label="H <= 41.0\nmse = 1954.131\nsamples = 50\nvalue = 95.812", fillcolor="#f9e1d0"] ;
317 -> 361 ;
362 [label="SLP <= 1012.5\nmse = 440.327\nsamples = 6\nvalue = 177.722", fillcolor="#f4c8a8"] ;
361 -> 362 ;
363 [label="mse = 0.0\nsamples = 1\nvalue = 217.917", fillcolor="#f1bb94"] ;
362 -> 363 ;
364 [label="VV <= 2.75\nmse = 140.65\nsamples = 5\nvalue = 169.683", fillcolor="#f4caac"] ;
362 -> 364 ;
365 [label="mse = 0.0\nsamples = 2\nvalue = 184.208", fillcolor="#f3c6a5"] ;
364 -> 365 ;
366 [label="mse = -0.0\nsamples = 3\nvalue = 160.0", fillcolor="#f5cdb1"] ;
364 -> 366 ;
367 [label="H <= 75.5\nmse = 1120.888\nsamples = 44\nvalue = 84.642", fillcolor="#fae5d6"] ;
361 -> 367 ;
368 [label="SLP <= 1014.75\nmse = 905.335\nsamples = 40\nvalue = 89.976", fillcolor="#f9e3d3"] ;
367 -> 368 ;
369 [label="V <= 6.1\nmse = 733.216\nsamples = 29\nvalue = 98.688", fillcolor="#f9e0cf"] ;
368 -> 369 ;
370 [label="T <= 22.35\nmse = 111.691\nsamples = 11\nvalue = 121.439", fillcolor="#f7d9c4"] ;
369 -> 370 ;
371 [label="SLP <= 1014.65\nmse = 7.422\nsamples = 4\nvalue = 133.781", fillcolor="#f6d5be"] ;
370 -> 371 ;
372 [label="mse = 0.0\nsamples = 1\nvalue = 138.5", fillcolor="#f6d4bb"] ;
371 -> 372 ;
373 [label="mse = 0.0\nsamples = 3\nvalue = 132.208", fillcolor="#f7d6be"] ;
371 -> 373 ;
374 [label="H <= 67.5\nmse = 34.495\nsamples = 7\nvalue = 114.387", fillcolor="#f8dbc7"] ;
370 -> 374 ;
375 [label="V <= 4.25\nmse = 11.571\nsamples = 5\nvalue = 117.483", fillcolor="#f7dac5"] ;
374 -> 375 ;
376 [label="mse = 0.0\nsamples = 1\nvalue = 111.958", fillcolor="#f8dcc8"] ;
375 -> 376 ;
377 [label="Tm <= 13.65\nmse = 4.925\nsamples = 4\nvalue = 118.865", fillcolor="#f7dac5"] ;
375 -> 377 ;
378 [label="mse = 0.0\nsamples = 1\nvalue = 122.708", fillcolor="#f7d9c3"] ;
377 -> 378 ;
379 [label="mse = 0.0\nsamples = 3\nvalue = 117.583", fillcolor="#f7dac5"] ;
377 -> 379 ;
380 [label="Tm <= 17.05\nmse = 7.91\nsamples = 2\nvalue = 106.646", fillcolor="#f8decb"] ;
374 -> 380 ;
381 [label="mse = 0.0\nsamples = 1\nvalue = 109.458", fillcolor="#f8ddc9"] ;
380 -> 381 ;
382 [label="mse = 0.0\nsamples = 1\nvalue = 103.833", fillcolor="#f8dfcc"] ;
380 -> 382 ;
383 [label="TM <= 29.4\nmse = 603.409\nsamples = 18\nvalue = 84.785", fillcolor="#fae5d5"] ;
369 -> 383 ;
384 [label="H <= 61.5\nmse = 401.775\nsamples = 10\nvalue = 100.712", fillcolor="#f9e0ce"] ;
383 -> 384 ;
385 [label="VV <= 2.35\nmse = 86.941\nsamples = 6\nvalue = 85.472", fillcolor="#fae4d5"] ;
384 -> 385 ;
386 [label="VM <= 16.65\nmse = 29.115\nsamples = 2\nvalue = 74.646", fillcolor="#fae8da"] ;
385 -> 386 ;
387 [label="mse = 0.0\nsamples = 1\nvalue = 69.25", fillcolor="#fbe9dd"] ;
386 -> 387 ;
388 [label="mse = 0.0\nsamples = 1\nvalue = 80.042", fillcolor="#fae6d8"] ;
386 -> 388 ;
389 [label="VV <= 2.5\nmse = 27.946\nsamples = 4\nvalue = 90.885", fillcolor="#f9e3d3"] ;
385 -> 389 ;
390 [label="mse = -0.0\nsamples = 3\nvalue = 87.833", fillcolor="#f9e4d4"] ;
389 -> 390 ;
391 [label="mse = 0.0\nsamples = 1\nvalue = 100.042", fillcolor="#f9e0ce"] ;
389 -> 391 ;
392 [label="Tm <= 17.5\nmse = 3.028\nsamples = 4\nvalue = 123.573", fillcolor="#f7d9c3"] ;
384 -> 392 ;
393 [label="SLP <= 1012.9\nmse = 0.01\nsamples = 3\nvalue = 122.569", fillcolor="#f7d9c3"] ;
392 -> 393 ;
394 [label="mse = 0.0\nsamples = 1\nvalue = 122.708", fillcolor="#f7d9c3"] ;
393 -> 394 ;
395 [label="mse = 0.0\nsamples = 2\nvalue = 122.5", fillcolor="#f7d9c3"] ;
393 -> 395 ;
396 [label="mse = -0.0\nsamples = 1\nvalue = 126.583", fillcolor="#f7d8c1"] ;
392 -> 396 ;
397 [label="TM <= 29.55\nmse = 141.937\nsamples = 8\nvalue = 64.875", fillcolor="#fbebdf"] ;
383 -> 397 ;
398 [label="mse = 0.0\nsamples = 3\nvalue = 77.208", fillcolor="#fae7d9"] ;
397 -> 398 ;
399 [label="SLP <= 1008.4\nmse = 81.073\nsamples = 5\nvalue = 57.475", fillcolor="#fbede3"] ;
397 -> 399 ;
400 [label="mse = 0.0\nsamples = 1\nvalue = 74.292", fillcolor="#fae8db"] ;
399 -> 400 ;
401 [label="SLP <= 1011.75\nmse = 12.966\nsamples = 4\nvalue = 53.271", fillcolor="#fceee5"] ;
399 -> 401 ;
402 [label="V <= 11.45\nmse = 1.619\nsamples = 3\nvalue = 51.292", fillcolor="#fcefe6"] ;
401 -> 402 ;
403 [label="mse = 0.0\nsamples = 1\nvalue = 49.5", fillcolor="#fcf0e7"] ;
402 -> 403 ;
404 [label="V <= 14.5\nmse = 0.021\nsamples = 2\nvalue = 52.188", fillcolor="#fcefe5"] ;
402 -> 404 ;
405 [label="mse = 0.0\nsamples = 1\nvalue = 52.042", fillcolor="#fcefe6"] ;
404 -> 405 ;
406 [label="mse = 0.0\nsamples = 1\nvalue = 52.333", fillcolor="#fcefe5"] ;
404 -> 406 ;
407 [label="mse = -0.0\nsamples = 1\nvalue = 59.208", fillcolor="#fbede2"] ;
401 -> 407 ;
408 [label="VM <= 24.05\nmse = 631.448\nsamples = 11\nvalue = 67.008", fillcolor="#fbeade"] ;
368 -> 408 ;
409 [label="Tm <= 15.1\nmse = 227.348\nsamples = 10\nvalue = 73.525", fillcolor="#fae8db"] ;
408 -> 409 ;
410 [label="T <= 21.8\nmse = 123.742\nsamples = 9\nvalue = 69.935", fillcolor="#fbe9dd"] ;
409 -> 410 ;
411 [label="H <= 64.5\nmse = 34.028\nsamples = 2\nvalue = 53.333", fillcolor="#fceee5"] ;
410 -> 411 ;
412 [label="mse = 0.0\nsamples = 1\nvalue = 47.5", fillcolor="#fcf0e8"] ;
411 -> 412 ;
413 [label="mse = 0.0\nsamples = 1\nvalue = 59.167", fillcolor="#fbede2"] ;
411 -> 413 ;
414 [label="VV <= 2.5\nmse = 48.125\nsamples = 7\nvalue = 74.679", fillcolor="#fae8da"] ;
410 -> 414 ;
415 [label="TM <= 30.45\nmse = 10.76\nsamples = 3\nvalue = 67.347", fillcolor="#fbeade"] ;
414 -> 415 ;
416 [label="mse = 0.0\nsamples = 2\nvalue = 69.667", fillcolor="#fbe9dd"] ;
415 -> 416 ;
417 [label="mse = -0.0\nsamples = 1\nvalue = 62.708", fillcolor="#fbebe0"] ;
415 -> 417 ;
418 [label="Tm <= 14.45\nmse = 5.604\nsamples = 4\nvalue = 80.177", fillcolor="#fae6d8"] ;
414 -> 418 ;
419 [label="T <= 22.85\nmse = 1.531\nsamples = 3\nvalue = 78.958", fillcolor="#fae6d8"] ;
418 -> 419 ;
420 [label="mse = 0.0\nsamples = 2\nvalue = 79.833", fillcolor="#fae6d8"] ;
419 -> 420 ;
421 [label="mse = -0.0\nsamples = 1\nvalue = 77.208", fillcolor="#fae7d9"] ;
419 -> 421 ;
422 [label="mse = -0.0\nsamples = 1\nvalue = 83.833", fillcolor="#fae5d6"] ;
418 -> 422 ;
423 [label="mse = -0.0\nsamples = 1\nvalue = 105.833", fillcolor="#f8decb"] ;
409 -> 423 ;
424 [label="mse = -0.0\nsamples = 1\nvalue = 1.833", fillcolor="#fffefe"] ;
408 -> 424 ;
425 [label="VV <= 2.1\nmse = 146.748\nsamples = 4\nvalue = 31.302", fillcolor="#fdf5f0"] ;
367 -> 425 ;
426 [label="TM <= 24.7\nmse = 0.004\nsamples = 2\nvalue = 20.354", fillcolor="#fef9f5"] ;
425 -> 426 ;
427 [label="mse = 0.0\nsamples = 1\nvalue = 20.417", fillcolor="#fef9f5"] ;
426 -> 427 ;
428 [label="mse = -0.0\nsamples = 1\nvalue = 20.292", fillcolor="#fef9f5"] ;
426 -> 428 ;
429 [label="SLP <= 1014.6\nmse = 53.778\nsamples = 2\nvalue = 42.25", fillcolor="#fcf2ea"] ;
425 -> 429 ;
430 [label="mse = 0.0\nsamples = 1\nvalue = 49.583", fillcolor="#fcf0e7"] ;
429 -> 430 ;
431 [label="mse = 0.0\nsamples = 1\nvalue = 34.917", fillcolor="#fdf4ee"] ;
429 -> 431 ;
432 [label="Tm <= 21.15\nmse = 2143.18\nsamples = 470\nvalue = 62.416", fillcolor="#fbece0"] ;
0 -> 432 [labeldistance=2.5, labelangle=-45, headlabel="False"] ;
433 [label="VV <= 1.7\nmse = 4884.76\nsamples = 88\nvalue = 92.393", fillcolor="#f9e2d2"] ;
432 -> 433 ;
434 [label="VM <= 4.45\nmse = 2952.666\nsamples = 12\nvalue = 169.677", fillcolor="#f4caac"] ;
433 -> 434 ;
435 [label="SLP <= 1011.75\nmse = 20.438\nsamples = 2\nvalue = 257.146", fillcolor="#eeaf81"] ;
434 -> 435 ;
436 [label="mse = 0.0\nsamples = 1\nvalue = 261.667", fillcolor="#eead7f"] ;
435 -> 436 ;
437 [label="mse = 0.0\nsamples = 1\nvalue = 252.625", fillcolor="#efb083"] ;
435 -> 437 ;
438 [label="Tm <= 16.9\nmse = 1702.924\nsamples = 10\nvalue = 152.183", fillcolor="#f5d0b5"] ;
434 -> 438 ;
439 [label="mse = 0.0\nsamples = 2\nvalue = 226.292", fillcolor="#f0b990"] ;
438 -> 439 ;
440 [label="VM <= 8.5\nmse = 412.391\nsamples = 8\nvalue = 133.656", fillcolor="#f6d5be"] ;
438 -> 440 ;
441 [label="VM <= 6.5\nmse = 140.397\nsamples = 3\nvalue = 153.417", fillcolor="#f5cfb4"] ;
440 -> 441 ;
442 [label="mse = 0.0\nsamples = 1\nvalue = 136.708", fillcolor="#f6d4bc"] ;
441 -> 442 ;
443 [label="SLP <= 1010.85\nmse = 1.219\nsamples = 2\nvalue = 161.771", fillcolor="#f5cdb0"] ;
441 -> 443 ;
444 [label="mse = 0.0\nsamples = 1\nvalue = 160.667", fillcolor="#f5cdb0"] ;
443 -> 444 ;
445 [label="mse = 0.0\nsamples = 1\nvalue = 162.875", fillcolor="#f5ccaf"] ;
443 -> 445 ;
446 [label="Tm <= 20.3\nmse = 200.732\nsamples = 5\nvalue = 121.8", fillcolor="#f7d9c3"] ;
440 -> 446 ;
447 [label="V <= 5.35\nmse = 30.632\nsamples = 4\nvalue = 128.438", fillcolor="#f7d7c0"] ;
446 -> 447 ;
448 [label="SLP <= 1011.0\nmse = 30.903\nsamples = 3\nvalue = 130.014", fillcolor="#f7d7bf"] ;
447 -> 448 ;
449 [label="mse = 0.0\nsamples = 1\nvalue = 137.875", fillcolor="#f6d4bc"] ;
448 -> 449 ;
450 [label="TM <= 32.9\nmse = 0.007\nsamples = 2\nvalue = 126.083", fillcolor="#f7d8c1"] ;
448 -> 450 ;
451 [label="mse = 0.0\nsamples = 1\nvalue = 126.0", fillcolor="#f7d8c1"] ;
450 -> 451 ;
452 [label="mse = 0.0\nsamples = 1\nvalue = 126.167", fillcolor="#f7d8c1"] ;
450 -> 452 ;
453 [label="mse = -0.0\nsamples = 1\nvalue = 123.708", fillcolor="#f7d8c2"] ;
447 -> 453 ;
454 [label="mse = 0.0\nsamples = 1\nvalue = 95.25", fillcolor="#f9e1d0"] ;
446 -> 454 ;
455 [label="VM <= 25.0\nmse = 4097.856\nsamples = 76\nvalue = 80.191", fillcolor="#fae6d8"] ;
433 -> 455 ;
456 [label="VM <= 10.25\nmse = 3077.457\nsamples = 63\nvalue = 67.003", fillcolor="#fbeade"] ;
455 -> 456 ;
457 [label="SLP <= 1013.6\nmse = 625.747\nsamples = 13\nvalue = 20.599", fillcolor="#fef9f5"] ;
456 -> 457 ;
458 [label="T <= 29.85\nmse = 466.154\nsamples = 6\nvalue = 42.486", fillcolor="#fcf2ea"] ;
457 -> 458 ;
459 [label="VV <= 2.15\nmse = 189.043\nsamples = 3\nvalue = 61.764", fillcolor="#fbece1"] ;
458 -> 459 ;
460 [label="mse = 0.0\nsamples = 1\nvalue = 81.208", fillcolor="#fae6d7"] ;
459 -> 460 ;
461 [label="mse = 0.0\nsamples = 2\nvalue = 52.042", fillcolor="#fcefe6"] ;
459 -> 461 ;
462 [label="mse = -0.0\nsamples = 3\nvalue = 23.208", fillcolor="#fef8f4"] ;
458 -> 462 ;
463 [label="TM <= 31.7\nmse = 0.003\nsamples = 7\nvalue = 1.839", fillcolor="#fffefe"] ;
457 -> 463 ;
464 [label="mse = 0.0\nsamples = 2\nvalue = 1.917", fillcolor="#fffefe"] ;
463 -> 464 ;
465 [label="Tm <= 15.45\nmse = 0.0\nsamples = 5\nvalue = 1.808", fillcolor="#fffefe"] ;
463 -> 465 ;
466 [label="mse = 0.0\nsamples = 2\nvalue = 1.833", fillcolor="#fffefe"] ;
465 -> 466 ;
467 [label="mse = 0.0\nsamples = 3\nvalue = 1.792", fillcolor="#fffefe"] ;
465 -> 467 ;
468 [label="V <= 4.9\nmse = 3009.492\nsamples = 50\nvalue = 79.067", fillcolor="#fae6d8"] ;
456 -> 468 ;
469 [label="VM <= 13.9\nmse = 4876.32\nsamples = 14\nvalue = 119.048", fillcolor="#f7dac5"] ;
468 -> 469 ;
470 [label="VM <= 12.05\nmse = 1115.305\nsamples = 12\nvalue = 93.486", fillcolor="#f9e2d1"] ;
469 -> 470 ;
471 [label="TM <= 32.6\nmse = 448.471\nsamples = 9\nvalue = 108.764", fillcolor="#f8ddca"] ;
470 -> 471 ;
472 [label="mse = 0.0\nsamples = 1\nvalue = 52.625", fillcolor="#fcefe5"] ;
471 -> 472 ;
473 [label="SLP <= 1009.9\nmse = 61.339\nsamples = 8\nvalue = 115.781", fillcolor="#f8dbc6"] ;
471 -> 473 ;
474 [label="VV <= 2.75\nmse = 8.404\nsamples = 5\nvalue = 121.3", fillcolor="#f7d9c4"] ;
473 -> 474 ;
475 [label="SLP <= 1009.0\nmse = 0.003\nsamples = 3\nvalue = 123.667", fillcolor="#f7d8c2"] ;
474 -> 475 ;
476 [label="mse = 0.0\nsamples = 2\nvalue = 123.708", fillcolor="#f7d8c2"] ;
475 -> 476 ;
477 [label="mse = 0.0\nsamples = 1\nvalue = 123.583", fillcolor="#f7d9c3"] ;
475 -> 477 ;
478 [label="mse = 0.0\nsamples = 2\nvalue = 117.75", fillcolor="#f7dac5"] ;
474 -> 478 ;
479 [label="H <= 66.0\nmse = 14.203\nsamples = 3\nvalue = 106.583", fillcolor="#f8decb"] ;
473 -> 479 ;
480 [label="SLP <= 1010.65\nmse = 0.959\nsamples = 2\nvalue = 109.188", fillcolor="#f8ddca"] ;
479 -> 480 ;
481 [label="mse = 0.0\nsamples = 1\nvalue = 110.167", fillcolor="#f8ddc9"] ;
480 -> 481 ;
482 [label="mse = 0.0\nsamples = 1\nvalue = 108.208", fillcolor="#f8ddca"] ;
480 -> 482 ;
483 [label="mse = 0.0\nsamples = 1\nvalue = 101.375", fillcolor="#f8dfcd"] ;
479 -> 483 ;
484 [label="V <= 4.15\nmse = 314.881\nsamples = 3\nvalue = 47.653", fillcolor="#fcf0e8"] ;
470 -> 484 ;
485 [label="VV <= 2.25\nmse = 24.174\nsamples = 2\nvalue = 59.875", fillcolor="#fbece2"] ;
484 -> 485 ;
486 [label="mse = 0.0\nsamples = 1\nvalue = 54.958", fillcolor="#fbeee4"] ;
485 -> 486 ;
487 [label="mse = 0.0\nsamples = 1\nvalue = 64.792", fillcolor="#fbebdf"] ;
485 -> 487 ;
488 [label="mse = 0.0\nsamples = 1\nvalue = 23.208", fillcolor="#fef8f4"] ;
484 -> 488 ;
489 [label="mse = 0.0\nsamples = 2\nvalue = 272.417", fillcolor="#edaa7a"] ;
469 -> 489 ;
490 [label="VM <= 13.9\nmse = 1420.164\nsamples = 36\nvalue = 63.52", fillcolor="#fbebe0"] ;
468 -> 490 ;
491 [label="TM <= 35.1\nmse = 96.837\nsamples = 3\nvalue = 129.75", fillcolor="#f7d7bf"] ;
490 -> 491 ;
492 [label="mse = 0.0\nsamples = 2\nvalue = 136.708", fillcolor="#f6d4bc"] ;
491 -> 492 ;
493 [label="mse = 0.0\nsamples = 1\nvalue = 115.833", fillcolor="#f8dbc6"] ;
491 -> 493 ;
494 [label="Tm <= 19.25\nmse = 1105.446\nsamples = 33\nvalue = 57.499", fillcolor="#fbede3"] ;
490 -> 494 ;
495 [label="VM <= 15.65\nmse = 850.638\nsamples = 18\nvalue = 41.262", fillcolor="#fcf2eb"] ;
494 -> 495 ;
496 [label="VV <= 3.25\nmse = 431.175\nsamples = 10\nvalue = 22.442", fillcolor="#fef8f4"] ;
495 -> 496 ;
497 [label="TM <= 34.6\nmse = 116.536\nsamples = 8\nvalue = 13.25", fillcolor="#fefbf9"] ;
496 -> 497 ;
498 [label="mse = 0.0\nsamples = 3\nvalue = 0.0", fillcolor="#ffffff"] ;
497 -> 498 ;
499 [label="T <= 25.05\nmse = 17.917\nsamples = 5\nvalue = 21.2", fillcolor="#fef8f5"] ;
497 -> 499 ;
500 [label="mse = 0.0\nsamples = 1\nvalue = 28.458", fillcolor="#fdf6f1"] ;
499 -> 500 ;
501 [label="V <= 8.1\nmse = 5.933\nsamples = 4\nvalue = 19.385", fillcolor="#fef9f6"] ;
499 -> 501 ;
502 [label="mse = 0.0\nsamples = 3\nvalue = 20.792", fillcolor="#fef9f5"] ;
501 -> 502 ;
503 [label="mse = 0.0\nsamples = 1\nvalue = 15.167", fillcolor="#fefaf8"] ;
501 -> 503 ;
504 [label="mse = -0.0\nsamples = 2\nvalue = 59.208", fillcolor="#fbede2"] ;
496 -> 504 ;
505 [label="TM <= 35.9\nmse = 378.809\nsamples = 8\nvalue = 64.786", fillcolor="#fbebdf"] ;
495 -> 505 ;
506 [label="VM <= 19.45\nmse = 123.467\nsamples = 7\nvalue = 71.006", fillcolor="#fae9dc"] ;
505 -> 506 ;
507 [label="V <= 10.95\nmse = 54.87\nsamples = 5\nvalue = 76.675", fillcolor="#fae7d9"] ;
506 -> 507 ;
508 [label="T <= 27.5\nmse = 24.459\nsamples = 4\nvalue = 79.646", fillcolor="#fae6d8"] ;
507 -> 508 ;
509 [label="Tm <= 18.6\nmse = 2.514\nsamples = 3\nvalue = 76.903", fillcolor="#fae7d9"] ;
508 -> 509 ;
510 [label="VV <= 2.25\nmse = 0.473\nsamples = 2\nvalue = 75.854", fillcolor="#fae7da"] ;
509 -> 510 ;
511 [label="mse = 0.0\nsamples = 1\nvalue = 76.542", fillcolor="#fae7da"] ;
510 -> 511 ;
512 [label="mse = 0.0\nsamples = 1\nvalue = 75.167", fillcolor="#fae8da"] ;
510 -> 512 ;
513 [label="mse = 0.0\nsamples = 1\nvalue = 79.0", fillcolor="#fae6d8"] ;
509 -> 513 ;
514 [label="mse = 0.0\nsamples = 1\nvalue = 87.875", fillcolor="#f9e4d4"] ;
508 -> 514 ;
515 [label="mse = 0.0\nsamples = 1\nvalue = 64.792", fillcolor="#fbebdf"] ;
507 -> 515 ;
516 [label="V <= 9.55\nmse = 13.752\nsamples = 2\nvalue = 56.833", fillcolor="#fbede3"] ;
506 -> 516 ;
517 [label="mse = 0.0\nsamples = 1\nvalue = 53.125", fillcolor="#fceee5"] ;
516 -> 517 ;
518 [label="mse = 0.0\nsamples = 1\nvalue = 60.542", fillcolor="#fbece1"] ;
516 -> 518 ;
519 [label="mse = 0.0\nsamples = 1\nvalue = 21.25", fillcolor="#fef8f5"] ;
505 -> 519 ;
520 [label="TM <= 36.1\nmse = 715.193\nsamples = 15\nvalue = 76.983", fillcolor="#fae7d9"] ;
494 -> 520 ;
521 [label="Tm <= 20.15\nmse = 334.586\nsamples = 11\nvalue = 68.333", fillcolor="#fbeade"] ;
520 -> 521 ;
522 [label="V <= 12.05\nmse = 181.762\nsamples = 7\nvalue = 79.393", fillcolor="#fae6d8"] ;
521 -> 522 ;
523 [label="Tm <= 19.65\nmse = 8.55\nsamples = 6\nvalue = 84.785", fillcolor="#fae5d5"] ;
522 -> 523 ;
524 [label="mse = 0.0\nsamples = 3\nvalue = 87.583", fillcolor="#f9e4d4"] ;
523 -> 524 ;
525 [label="T <= 27.1\nmse = 1.436\nsamples = 3\nvalue = 81.986", fillcolor="#fae5d7"] ;
523 -> 525 ;
526 [label="mse = 0.0\nsamples = 1\nvalue = 80.292", fillcolor="#fae6d8"] ;
525 -> 526 ;
527 [label="mse = -0.0\nsamples = 2\nvalue = 82.833", fillcolor="#fae5d6"] ;
525 -> 527 ;
528 [label="mse = 0.0\nsamples = 1\nvalue = 47.042", fillcolor="#fcf0e8"] ;
522 -> 528 ;
529 [label="VM <= 21.2\nmse = 13.398\nsamples = 4\nvalue = 48.979", fillcolor="#fcf0e7"] ;
521 -> 529 ;
530 [label="T <= 26.5\nmse = 1.529\nsamples = 3\nvalue = 51.0", fillcolor="#fcefe6"] ;
529 -> 530 ;
531 [label="mse = 0.0\nsamples = 1\nvalue = 49.333", fillcolor="#fcf0e7"] ;
530 -> 531 ;
532 [label="VM <= 16.55\nmse = 0.21\nsamples = 2\nvalue = 51.833", fillcolor="#fcefe6"] ;
530 -> 532 ;
533 [label="mse = 0.0\nsamples = 1\nvalue = 51.375", fillcolor="#fcefe6"] ;
532 -> 533 ;
534 [label="mse = 0.0\nsamples = 1\nvalue = 52.292", fillcolor="#fcefe5"] ;
532 -> 534 ;
535 [label="mse = 0.0\nsamples = 1\nvalue = 42.917", fillcolor="#fcf2ea"] ;
529 -> 535 ;
536 [label="V <= 11.2\nmse = 990.254\nsamples = 4\nvalue = 100.771", fillcolor="#f9e0ce"] ;
520 -> 536 ;
537 [label="H <= 39.5\nmse = 92.42\nsamples = 3\nvalue = 118.292", fillcolor="#f7dac5"] ;
536 -> 537 ;
538 [label="mse = 0.0\nsamples = 1\nvalue = 105.333", fillcolor="#f8decb"] ;
537 -> 538 ;
539 [label="TM <= 37.7\nmse = 12.691\nsamples = 2\nvalue = 124.771", fillcolor="#f7d8c2"] ;
537 -> 539 ;
540 [label="mse = 0.0\nsamples = 1\nvalue = 128.333", fillcolor="#f7d7c0"] ;
539 -> 540 ;
541 [label="mse = 0.0\nsamples = 1\nvalue = 121.208", fillcolor="#f7d9c4"] ;
539 -> 541 ;
542 [label="mse = -0.0\nsamples = 1\nvalue = 48.208", fillcolor="#fcf0e7"] ;
536 -> 542 ;
543 [label="H <= 54.0\nmse = 4115.273\nsamples = 13\nvalue = 144.103", fillcolor="#f6d2b8"] ;
455 -> 543 ;
544 [label="V <= 8.45\nmse = 1270.166\nsamples = 8\nvalue = 103.656", fillcolor="#f8dfcc"] ;
543 -> 544 ;
545 [label="mse = 0.0\nsamples = 2\nvalue = 160.667", fillcolor="#f5cdb0"] ;
544 -> 545 ;
546 [label="SLP <= 1010.45\nmse = 249.026\nsamples = 6\nvalue = 84.653", fillcolor="#fae5d6"] ;
544 -> 546 ;
547 [label="SLP <= 1007.8\nmse = 17.836\nsamples = 4\nvalue = 95.542", fillcolor="#f9e1d0"] ;
546 -> 547 ;
548 [label="mse = 0.0\nsamples = 1\nvalue = 101.792", fillcolor="#f8dfcd"] ;
547 -> 548 ;
549 [label="V <= 9.75\nmse = 6.42\nsamples = 3\nvalue = 93.458", fillcolor="#f9e2d1"] ;
547 -> 549 ;
550 [label="mse = 0.0\nsamples = 2\nvalue = 95.25", fillcolor="#f9e1d0"] ;
549 -> 550 ;
551 [label="mse = 0.0\nsamples = 1\nvalue = 89.875", fillcolor="#f9e3d3"] ;
549 -> 551 ;
552 [label="mse = 0.0\nsamples = 2\nvalue = 62.875", fillcolor="#fbebe0"] ;
546 -> 552 ;
553 [label="VV <= 3.15\nmse = 1862.082\nsamples = 5\nvalue = 208.817", fillcolor="#f2be99"] ;
543 -> 553 ;
554 [label="mse = 0.0\nsamples = 2\nvalue = 261.667", fillcolor="#eead7f"] ;
553 -> 554 ;
555 [label="mse = -0.0\nsamples = 3\nvalue = 173.583", fillcolor="#f4c9aa"] ;
553 -> 555 ;
556 [label="TM <= 37.85\nmse = 1256.91\nsamples = 382\nvalue = 55.511", fillcolor="#fbeee4"] ;
432 -> 556 ;
557 [label="Tm <= 23.95\nmse = 619.847\nsamples = 224\nvalue = 41.763", fillcolor="#fcf2eb"] ;
556 -> 557 ;
558 [label="VV <= 2.45\nmse = 748.124\nsamples = 29\nvalue = 58.477", fillcolor="#fbede2"] ;
557 -> 558 ;
559 [label="T <= 25.7\nmse = 720.775\nsamples = 17\nvalue = 71.816", fillcolor="#fae9dc"] ;
558 -> 559 ;
560 [label="mse = 0.0\nsamples = 1\nvalue = 11.583", fillcolor="#fefbf9"] ;
559 -> 560 ;
561 [label="T <= 29.45\nmse = 524.902\nsamples = 16\nvalue = 75.581", fillcolor="#fae7da"] ;
559 -> 561 ;
562 [label="V <= 6.2\nmse = 277.615\nsamples = 12\nvalue = 68.003", fillcolor="#fbeade"] ;
561 -> 562 ;
563 [label="Tm <= 23.25\nmse = 241.224\nsamples = 9\nvalue = 73.56", fillcolor="#fae8db"] ;
562 -> 563 ;
564 [label="Tm <= 23.1\nmse = 89.138\nsamples = 6\nvalue = 81.84", fillcolor="#fae6d7"] ;
563 -> 564 ;
565 [label="T <= 27.9\nmse = 46.535\nsamples = 5\nvalue = 78.667", fillcolor="#fae6d8"] ;
564 -> 565 ;
566 [label="T <= 27.45\nmse = 3.216\nsamples = 3\nvalue = 82.417", fillcolor="#fae5d7"] ;
565 -> 566 ;
567 [label="mse = 0.0\nsamples = 1\nvalue = 80.042", fillcolor="#fae6d8"] ;
566 -> 567 ;
568 [label="Tm <= 22.25\nmse = 0.594\nsamples = 2\nvalue = 83.604", fillcolor="#fae5d6"] ;
566 -> 568 ;
569 [label="mse = 0.0\nsamples = 1\nvalue = 84.375", fillcolor="#fae5d6"] ;
568 -> 569 ;
570 [label="mse = -0.0\nsamples = 1\nvalue = 82.833", fillcolor="#fae5d6"] ;
568 -> 570 ;
571 [label="VM <= 16.75\nmse = 58.778\nsamples = 2\nvalue = 73.042", fillcolor="#fae8db"] ;
565 -> 571 ;
572 [label="mse = 0.0\nsamples = 1\nvalue = 65.375", fillcolor="#fbebdf"] ;
571 -> 572 ;
573 [label="mse = -0.0\nsamples = 1\nvalue = 80.708", fillcolor="#fae6d7"] ;
571 -> 573 ;
574 [label="mse = -0.0\nsamples = 1\nvalue = 97.708", fillcolor="#f9e1cf"] ;
564 -> 574 ;
575 [label="Tm <= 23.4\nmse = 134.036\nsamples = 3\nvalue = 57.0", fillcolor="#fbede3"] ;
563 -> 575 ;
576 [label="mse = 0.0\nsamples = 1\nvalue = 42.292", fillcolor="#fcf2ea"] ;
575 -> 576 ;
577 [label="TM <= 33.95\nmse = 38.803\nsamples = 2\nvalue = 64.354", fillcolor="#fbebdf"] ;
575 -> 577 ;
578 [label="mse = 0.0\nsamples = 1\nvalue = 70.583", fillcolor="#fae9dc"] ;
577 -> 578 ;
579 [label="mse = -0.0\nsamples = 1\nvalue = 58.125", fillcolor="#fbede3"] ;
577 -> 579 ;
580 [label="VM <= 22.15\nmse = 16.264\nsamples = 3\nvalue = 51.333", fillcolor="#fcefe6"] ;
562 -> 580 ;
581 [label="V <= 6.4\nmse = 3.062\nsamples = 2\nvalue = 48.667", fillcolor="#fcf0e7"] ;
580 -> 581 ;
582 [label="mse = 0.0\nsamples = 1\nvalue = 50.417", fillcolor="#fcefe6"] ;
581 -> 582 ;
583 [label="mse = 0.0\nsamples = 1\nvalue = 46.917", fillcolor="#fcf0e8"] ;
581 -> 583 ;
584 [label="mse = 0.0\nsamples = 1\nvalue = 56.667", fillcolor="#fbede3"] ;
580 -> 584 ;
585 [label="T <= 29.75\nmse = 577.785\nsamples = 4\nvalue = 98.312", fillcolor="#f9e0cf"] ;
561 -> 585 ;
586 [label="H <= 44.5\nmse = 201.285\nsamples = 2\nvalue = 119.521", fillcolor="#f7dac4"] ;
585 -> 586 ;
587 [label="mse = 0.0\nsamples = 1\nvalue = 105.333", fillcolor="#f8decb"] ;
586 -> 587 ;
588 [label="mse = 0.0\nsamples = 1\nvalue = 133.708", fillcolor="#f6d5be"] ;
586 -> 588 ;
589 [label="TM <= 36.4\nmse = 54.698\nsamples = 2\nvalue = 77.104", fillcolor="#fae7d9"] ;
585 -> 589 ;
590 [label="mse = 0.0\nsamples = 1\nvalue = 69.708", fillcolor="#fbe9dd"] ;
589 -> 590 ;
591 [label="mse = -0.0\nsamples = 1\nvalue = 84.5", fillcolor="#fae5d6"] ;
589 -> 591 ;
592 [label="TM <= 36.95\nmse = 177.694\nsamples = 12\nvalue = 39.58", fillcolor="#fcf3ec"] ;
558 -> 592 ;
593 [label="TM <= 35.15\nmse = 70.192\nsamples = 10\nvalue = 44.462", fillcolor="#fcf1e9"] ;
592 -> 593 ;
594 [label="H <= 73.0\nmse = 31.297\nsamples = 6\nvalue = 38.896", fillcolor="#fcf3ec"] ;
593 -> 594 ;
595 [label="H <= 64.0\nmse = 2.877\nsamples = 5\nvalue = 41.3", fillcolor="#fcf2eb"] ;
594 -> 595 ;
596 [label="SLP <= 1005.05\nmse = 0.689\nsamples = 4\nvalue = 42.062", fillcolor="#fcf2ea"] ;
595 -> 596 ;
597 [label="mse = 0.0\nsamples = 1\nvalue = 43.5", fillcolor="#fcf1ea"] ;
596 -> 597 ;
598 [label="mse = 0.0\nsamples = 3\nvalue = 41.583", fillcolor="#fcf2eb"] ;
596 -> 598 ;
599 [label="mse = 0.0\nsamples = 1\nvalue = 38.25", fillcolor="#fdf3ec"] ;
595 -> 599 ;
600 [label="mse = 0.0\nsamples = 1\nvalue = 26.875", fillcolor="#fdf7f2"] ;
594 -> 600 ;
601 [label="TM <= 35.95\nmse = 12.33\nsamples = 4\nvalue = 52.812", fillcolor="#fcefe5"] ;
593 -> 601 ;
602 [label="VM <= 12.05\nmse = 1.042\nsamples = 2\nvalue = 56.104", fillcolor="#fbeee4"] ;
601 -> 602 ;
603 [label="mse = 0.0\nsamples = 1\nvalue = 55.083", fillcolor="#fbeee4"] ;
602 -> 603 ;
604 [label="mse = 0.0\nsamples = 1\nvalue = 57.125", fillcolor="#fbede3"] ;
602 -> 604 ;
605 [label="H <= 61.5\nmse = 1.948\nsamples = 2\nvalue = 49.521", fillcolor="#fcf0e7"] ;
601 -> 605 ;
606 [label="mse = 0.0\nsamples = 1\nvalue = 48.125", fillcolor="#fcf0e7"] ;
605 -> 606 ;
607 [label="mse = 0.0\nsamples = 1\nvalue = 50.917", fillcolor="#fcefe6"] ;
605 -> 607 ;
608 [label="mse = 0.0\nsamples = 2\nvalue = 15.167", fillcolor="#fefaf8"] ;
592 -> 608 ;
609 [label="H <= 50.0\nmse = 553.043\nsamples = 195\nvalue = 39.277", fillcolor="#fcf3ec"] ;
557 -> 609 ;
610 [label="mse = 0.0\nsamples = 1\nvalue = 128.125", fillcolor="#f7d7c0"] ;
609 -> 610 ;
611 [label="V <= 8.4\nmse = 514.994\nsamples = 194\nvalue = 38.819", fillcolor="#fdf3ec"] ;
609 -> 611 ;
612 [label="TM <= 34.45\nmse = 523.368\nsamples = 145\nvalue = 42.204", fillcolor="#fcf2ea"] ;
611 -> 612 ;
613 [label="H <= 68.5\nmse = 117.479\nsamples = 39\nvalue = 33.917", fillcolor="#fdf4ee"] ;
612 -> 613 ;
614 [label="mse = 0.0\nsamples = 1\nvalue = 0.0", fillcolor="#ffffff"] ;
613 -> 614 ;
615 [label="V <= 2.3\nmse = 89.501\nsamples = 38\nvalue = 34.809", fillcolor="#fdf4ee"] ;
613 -> 615 ;
616 [label="SLP <= 1002.2\nmse = 88.997\nsamples = 7\nvalue = 42.524", fillcolor="#fcf2ea"] ;
615 -> 616 ;
617 [label="VM <= 9.35\nmse = 3.719\nsamples = 6\nvalue = 46.306", fillcolor="#fcf1e8"] ;
616 -> 617 ;
618 [label="T <= 29.2\nmse = 0.021\nsamples = 4\nvalue = 47.667", fillcolor="#fcf0e8"] ;
617 -> 618 ;
619 [label="mse = 0.0\nsamples = 1\nvalue = 47.417", fillcolor="#fcf0e8"] ;
618 -> 619 ;
620 [label="mse = 0.0\nsamples = 3\nvalue = 47.75", fillcolor="#fcf0e8"] ;
618 -> 620 ;
621 [label="mse = -0.0\nsamples = 2\nvalue = 43.583", fillcolor="#fcf1ea"] ;
617 -> 621 ;
622 [label="mse = -0.0\nsamples = 1\nvalue = 19.833", fillcolor="#fef9f5"] ;
616 -> 622 ;
623 [label="SLP <= 995.3\nmse = 73.142\nsamples = 31\nvalue = 33.067", fillcolor="#fdf5ef"] ;
615 -> 623 ;
624 [label="mse = 0.0\nsamples = 1\nvalue = 52.25", fillcolor="#fcefe5"] ;
623 -> 624 ;
625 [label="TM <= 30.65\nmse = 62.905\nsamples = 30\nvalue = 32.428", fillcolor="#fdf5ef"] ;
623 -> 625 ;
626 [label="mse = 0.0\nsamples = 1\nvalue = 50.333", fillcolor="#fcefe6"] ;
625 -> 626 ;
627 [label="V <= 4.35\nmse = 53.637\nsamples = 29\nvalue = 31.81", fillcolor="#fdf5ef"] ;
625 -> 627 ;
628 [label="VM <= 12.95\nmse = 29.28\nsamples = 6\nvalue = 25.91", fillcolor="#fdf7f2"] ;
627 -> 628 ;
629 [label="H <= 86.0\nmse = 8.5\nsamples = 5\nvalue = 28.017", fillcolor="#fdf6f1"] ;
628 -> 629 ;
630 [label="VM <= 9.35\nmse = 0.203\nsamples = 4\nvalue = 26.573", fillcolor="#fdf7f2"] ;
629 -> 630 ;
631 [label="mse = 0.0\nsamples = 1\nvalue = 25.792", fillcolor="#fdf7f2"] ;
630 -> 631 ;
632 [label="mse = -0.0\nsamples = 3\nvalue = 26.833", fillcolor="#fdf7f2"] ;
630 -> 632 ;
633 [label="mse = -0.0\nsamples = 1\nvalue = 33.792", fillcolor="#fdf4ee"] ;
629 -> 633 ;
634 [label="mse = 0.0\nsamples = 1\nvalue = 15.375", fillcolor="#fefaf7"] ;
628 -> 634 ;
635 [label="T <= 29.15\nmse = 48.539\nsamples = 23\nvalue = 33.35", fillcolor="#fdf5ef"] ;
627 -> 635 ;
636 [label="H <= 89.5\nmse = 38.554\nsamples = 15\nvalue = 31.122", fillcolor="#fdf5f0"] ;
635 -> 636 ;
637 [label="V <= 7.3\nmse = 29.424\nsamples = 14\nvalue = 30.232", fillcolor="#fdf6f0"] ;
636 -> 637 ;
638 [label="V <= 5.75\nmse = 25.67\nsamples = 10\nvalue = 28.275", fillcolor="#fdf6f1"] ;
637 -> 638 ;
639 [label="Tm <= 25.55\nmse = 5.131\nsamples = 4\nvalue = 32.844", fillcolor="#fdf5ef"] ;
638 -> 639 ;
640 [label="mse = 0.0\nsamples = 2\nvalue = 30.625", fillcolor="#fdf5f0"] ;
639 -> 640 ;
641 [label="V <= 5.3\nmse = 0.417\nsamples = 2\nvalue = 35.062", fillcolor="#fdf4ee"] ;
639 -> 641 ;
642 [label="mse = 0.0\nsamples = 1\nvalue = 35.708", fillcolor="#fdf4ee"] ;
641 -> 642 ;
643 [label="mse = -0.0\nsamples = 1\nvalue = 34.417", fillcolor="#fdf4ee"] ;
641 -> 643 ;
644 [label="VV <= 1.7\nmse = 16.169\nsamples = 6\nvalue = 25.229", fillcolor="#fdf7f3"] ;
638 -> 644 ;
645 [label="mse = 0.0\nsamples = 1\nvalue = 33.167", fillcolor="#fdf5ef"] ;
644 -> 645 ;
646 [label="VM <= 13.9\nmse = 4.282\nsamples = 5\nvalue = 23.642", fillcolor="#fdf8f3"] ;
644 -> 646 ;
647 [label="Tm <= 25.2\nmse = 0.099\nsamples = 3\nvalue = 25.319", fillcolor="#fdf7f3"] ;
646 -> 647 ;
648 [label="mse = 0.0\nsamples = 1\nvalue = 24.875", fillcolor="#fdf7f3"] ;
647 -> 648 ;
649 [label="mse = 0.0\nsamples = 2\nvalue = 25.542", fillcolor="#fdf7f2"] ;
647 -> 649 ;
650 [label="mse = 0.0\nsamples = 2\nvalue = 21.125", fillcolor="#fef8f5"] ;
646 -> 650 ;
651 [label="V <= 7.6\nmse = 5.294\nsamples = 4\nvalue = 35.125", fillcolor="#fdf4ee"] ;
637 -> 651 ;
652 [label="mse = 0.0\nsamples = 1\nvalue = 38.792", fillcolor="#fdf3ec"] ;
651 -> 652 ;
653 [label="Tm <= 24.9\nmse = 1.084\nsamples = 3\nvalue = 33.903", fillcolor="#fdf4ee"] ;
651 -> 653 ;
654 [label="mse = 0.0\nsamples = 2\nvalue = 33.167", fillcolor="#fdf5ef"] ;
653 -> 654 ;
655 [label="mse = 0.0\nsamples = 1\nvalue = 35.375", fillcolor="#fdf4ee"] ;
653 -> 655 ;
656 [label="mse = -0.0\nsamples = 1\nvalue = 43.583", fillcolor="#fcf1ea"] ;
636 -> 656 ;
657 [label="H <= 74.5\nmse = 40.517\nsamples = 8\nvalue = 37.526", fillcolor="#fdf3ed"] ;
635 -> 657 ;
658 [label="H <= 70.5\nmse = 0.959\nsamples = 2\nvalue = 27.396", fillcolor="#fdf6f2"] ;
657 -> 658 ;
659 [label="mse = 0.0\nsamples = 1\nvalue = 28.375", fillcolor="#fdf6f1"] ;
658 -> 659 ;
660 [label="mse = 0.0\nsamples = 1\nvalue = 26.417", fillcolor="#fdf7f2"] ;
658 -> 660 ;
661 [label="VV <= 2.35\nmse = 8.094\nsamples = 6\nvalue = 40.903", fillcolor="#fcf2eb"] ;
657 -> 661 ;
662 [label="TM <= 32.7\nmse = 4.083\nsamples = 4\nvalue = 42.542", fillcolor="#fcf2ea"] ;
661 -> 662 ;
663 [label="mse = 0.0\nsamples = 3\nvalue = 41.375", fillcolor="#fcf2eb"] ;
662 -> 663 ;
664 [label="mse = 0.0\nsamples = 1\nvalue = 46.042", fillcolor="#fcf1e8"] ;
662 -> 664 ;
665 [label="mse = 0.0\nsamples = 2\nvalue = 37.625", fillcolor="#fdf3ed"] ;
661 -> 665 ;
666 [label="VV <= 2.0\nmse = 638.138\nsamples = 106\nvalue = 45.253", fillcolor="#fcf1e9"] ;
612 -> 666 ;
667 [label="V <= 7.3\nmse = 1041.307\nsamples = 43\nvalue = 52.881", fillcolor="#fcefe5"] ;
666 -> 667 ;
668 [label="Tm <= 24.15\nmse = 1094.881\nsamples = 37\nvalue = 56.438", fillcolor="#fbede3"] ;
667 -> 668 ;
669 [label="mse = 0.0\nsamples = 1\nvalue = 0.0", fillcolor="#ffffff"] ;
668 -> 669 ;
670 [label="H <= 74.5\nmse = 1034.357\nsamples = 36\nvalue = 58.006", fillcolor="#fbede3"] ;
668 -> 670 ;
671 [label="Tm <= 26.9\nmse = 1224.339\nsamples = 17\nvalue = 69.831", fillcolor="#fbe9dd"] ;
670 -> 671 ;
672 [label="V <= 4.0\nmse = 379.82\nsamples = 14\nvalue = 59.735", fillcolor="#fbece2"] ;
671 -> 672 ;
673 [label="Tm <= 24.9\nmse = 148.868\nsamples = 8\nvalue = 70.297", fillcolor="#fae9dd"] ;
672 -> 673 ;
674 [label="TM <= 35.85\nmse = 52.758\nsamples = 3\nvalue = 56.0", fillcolor="#fbeee4"] ;
673 -> 674 ;
675 [label="Tm <= 24.55\nmse = 0.34\nsamples = 2\nvalue = 61.125", fillcolor="#fbece1"] ;
674 -> 675 ;
676 [label="mse = 0.0\nsamples = 1\nvalue = 61.708", fillcolor="#fbece1"] ;
675 -> 676 ;
677 [label="mse = 0.0\nsamples = 1\nvalue = 60.542", fillcolor="#fbece1"] ;
675 -> 677 ;
678 [label="mse = 0.0\nsamples = 1\nvalue = 45.75", fillcolor="#fcf1e9"] ;
674 -> 678 ;
679 [label="H <= 71.0\nmse = 10.309\nsamples = 5\nvalue = 78.875", fillcolor="#fae6d8"] ;
673 -> 679 ;
680 [label="SLP <= 1001.9\nmse = 5.662\nsamples = 3\nvalue = 80.944", fillcolor="#fae6d7"] ;
679 -> 680 ;
681 [label="mse = 0.0\nsamples = 1\nvalue = 77.75", fillcolor="#fae7d9"] ;
680 -> 681 ;
682 [label="T <= 30.4\nmse = 0.84\nsamples = 2\nvalue = 82.542", fillcolor="#fae5d7"] ;
680 -> 682 ;
683 [label="mse = 0.0\nsamples = 1\nvalue = 81.625", fillcolor="#fae6d7"] ;
682 -> 683 ;
684 [label="mse = -0.0\nsamples = 1\nvalue = 83.458", fillcolor="#fae5d6"] ;
682 -> 684 ;
685 [label="H <= 73.5\nmse = 1.219\nsamples = 2\nvalue = 75.771", fillcolor="#fae7da"] ;
679 -> 685 ;
686 [label="mse = 0.0\nsamples = 1\nvalue = 74.667", fillcolor="#fae8da"] ;
685 -> 686 ;
687 [label="mse = 0.0\nsamples = 1\nvalue = 76.875", fillcolor="#fae7d9"] ;
685 -> 687 ;
688 [label="V <= 6.1\nmse = 340.709\nsamples = 6\nvalue = 45.653", fillcolor="#fcf1e9"] ;
672 -> 688 ;
689 [label="V <= 4.85\nmse = 45.385\nsamples = 3\nvalue = 28.083", fillcolor="#fdf6f1"] ;
688 -> 689 ;
690 [label="mse = 0.0\nsamples = 1\nvalue = 37.583", fillcolor="#fdf3ed"] ;
689 -> 690 ;
691 [label="Tm <= 25.8\nmse = 0.391\nsamples = 2\nvalue = 23.333", fillcolor="#fef8f4"] ;
689 -> 691 ;
692 [label="mse = 0.0\nsamples = 1\nvalue = 22.708", fillcolor="#fef8f4"] ;
691 -> 692 ;
693 [label="mse = 0.0\nsamples = 1\nvalue = 23.958", fillcolor="#fdf8f3"] ;
691 -> 693 ;
694 [label="TM <= 35.3\nmse = 18.662\nsamples = 3\nvalue = 63.222", fillcolor="#fbebe0"] ;
688 -> 694 ;
695 [label="mse = 0.0\nsamples = 1\nvalue = 57.292", fillcolor="#fbede3"] ;
694 -> 695 ;
696 [label="Tm <= 25.5\nmse = 1.615\nsamples = 2\nvalue = 66.188", fillcolor="#fbeadf"] ;
694 -> 696 ;
697 [label="mse = 0.0\nsamples = 1\nvalue = 67.458", fillcolor="#fbeade"] ;
696 -> 697 ;
698 [label="mse = -0.0\nsamples = 1\nvalue = 64.917", fillcolor="#fbebdf"] ;
696 -> 698 ;
699 [label="TM <= 35.5\nmse = 2470.095\nsamples = 3\nvalue = 116.944", fillcolor="#f7dbc6"] ;
671 -> 699 ;
700 [label="mse = 0.0\nsamples = 1\nvalue = 184.667", fillcolor="#f3c5a5"] ;
699 -> 700 ;
701 [label="VM <= 12.95\nmse = 265.418\nsamples = 2\nvalue = 83.083", fillcolor="#fae5d6"] ;
699 -> 701 ;
702 [label="mse = 0.0\nsamples = 1\nvalue = 99.375", fillcolor="#f9e0ce"] ;
701 -> 702 ;
703 [label="mse = 0.0\nsamples = 1\nvalue = 66.792", fillcolor="#fbeade"] ;
701 -> 703 ;
704 [label="T <= 29.0\nmse = 627.316\nsamples = 19\nvalue = 47.425", fillcolor="#fcf0e8"] ;
670 -> 704 ;
705 [label="T <= 28.6\nmse = 1799.146\nsamples = 4\nvalue = 74.344", fillcolor="#fae8db"] ;
704 -> 705 ;
706 [label="V <= 5.3\nmse = 103.52\nsamples = 3\nvalue = 50.389", fillcolor="#fcefe6"] ;
705 -> 706 ;
707 [label="mse = 0.0\nsamples = 2\nvalue = 57.583", fillcolor="#fbede3"] ;
706 -> 707 ;
708 [label="mse = 0.0\nsamples = 1\nvalue = 36.0", fillcolor="#fdf4ed"] ;
706 -> 708 ;
709 [label="mse = 0.0\nsamples = 1\nvalue = 146.208", fillcolor="#f6d1b7"] ;
705 -> 709 ;
710 [label="H <= 81.5\nmse = 70.076\nsamples = 15\nvalue = 40.247", fillcolor="#fcf2eb"] ;
704 -> 710 ;
711 [label="V <= 3.05\nmse = 41.874\nsamples = 14\nvalue = 41.735", fillcolor="#fcf2eb"] ;
710 -> 711 ;
712 [label="TM <= 35.85\nmse = 10.557\nsamples = 5\nvalue = 47.358", fillcolor="#fcf0e8"] ;
711 -> 712 ;
713 [label="TM <= 35.0\nmse = 1.635\nsamples = 3\nvalue = 44.847", fillcolor="#fcf1e9"] ;
712 -> 713 ;
714 [label="mse = 0.0\nsamples = 1\nvalue = 43.042", fillcolor="#fcf2ea"] ;
713 -> 714 ;
715 [label="T <= 30.75\nmse = 0.007\nsamples = 2\nvalue = 45.75", fillcolor="#fcf1e9"] ;
713 -> 715 ;
716 [label="mse = 0.0\nsamples = 1\nvalue = 45.833", fillcolor="#fcf1e9"] ;
715 -> 716 ;
717 [label="mse = -0.0\nsamples = 1\nvalue = 45.667", fillcolor="#fcf1e9"] ;
715 -> 717 ;
718 [label="SLP <= 1003.05\nmse = 0.293\nsamples = 2\nvalue = 51.125", fillcolor="#fcefe6"] ;
712 -> 718 ;
719 [label="mse = 0.0\nsamples = 1\nvalue = 50.583", fillcolor="#fcefe6"] ;
718 -> 719 ;
720 [label="mse = 0.0\nsamples = 1\nvalue = 51.667", fillcolor="#fcefe6"] ;
718 -> 720 ;
721 [label="V <= 6.95\nmse = 31.946\nsamples = 9\nvalue = 38.611", fillcolor="#fdf3ec"] ;
711 -> 721 ;
722 [label="TM <= 37.4\nmse = 20.394\nsamples = 8\nvalue = 37.297", fillcolor="#fdf3ed"] ;
721 -> 722 ;
723 [label="VM <= 15.65\nmse = 13.802\nsamples = 7\nvalue = 38.387", fillcolor="#fdf3ec"] ;
722 -> 723 ;
724 [label="SLP <= 997.85\nmse = 2.289\nsamples = 6\nvalue = 39.792", fillcolor="#fcf3ec"] ;
723 -> 724 ;
725 [label="TM <= 36.15\nmse = 0.098\nsamples = 2\nvalue = 37.938", fillcolor="#fdf3ec"] ;
724 -> 725 ;
726 [label="mse = 0.0\nsamples = 1\nvalue = 38.25", fillcolor="#fdf3ec"] ;
725 -> 726 ;
727 [label="mse = 0.0\nsamples = 1\nvalue = 37.625", fillcolor="#fdf3ed"] ;
725 -> 727 ;
728 [label="SLP <= 1002.6\nmse = 0.806\nsamples = 4\nvalue = 40.719", fillcolor="#fcf2eb"] ;
724 -> 728 ;
729 [label="H <= 75.5\nmse = 0.321\nsamples = 3\nvalue = 41.153", fillcolor="#fcf2eb"] ;
728 -> 729 ;
730 [label="mse = 0.0\nsamples = 1\nvalue = 40.375", fillcolor="#fcf2eb"] ;
729 -> 730 ;
731 [label="VM <= 12.95\nmse = 0.028\nsamples = 2\nvalue = 41.542", fillcolor="#fcf2eb"] ;
729 -> 731 ;
732 [label="mse = 0.0\nsamples = 1\nvalue = 41.375", fillcolor="#fcf2eb"] ;
731 -> 732 ;
733 [label="mse = 0.0\nsamples = 1\nvalue = 41.708", fillcolor="#fcf2eb"] ;
731 -> 733 ;
734 [label="mse = 0.0\nsamples = 1\nvalue = 39.417", fillcolor="#fcf3ec"] ;
728 -> 734 ;
735 [label="mse = -0.0\nsamples = 1\nvalue = 29.958", fillcolor="#fdf6f0"] ;
723 -> 735 ;
736 [label="mse = 0.0\nsamples = 1\nvalue = 29.667", fillcolor="#fdf6f0"] ;
722 -> 736 ;
737 [label="mse = 0.0\nsamples = 1\nvalue = 49.125", fillcolor="#fcf0e7"] ;
721 -> 737 ;
738 [label="mse = -0.0\nsamples = 1\nvalue = 19.417", fillcolor="#fef9f5"] ;
710 -> 738 ;
739 [label="VM <= 13.9\nmse = 151.697\nsamples = 6\nvalue = 30.944", fillcolor="#fdf5f0"] ;
667 -> 739 ;
740 [label="mse = 0.0\nsamples = 1\nvalue = 8.417", fillcolor="#fefcfb"] ;
739 -> 740 ;
741 [label="TM <= 36.9\nmse = 60.236\nsamples = 5\nvalue = 35.45", fillcolor="#fdf4ee"] ;
739 -> 741 ;
742 [label="H <= 77.0\nmse = 14.336\nsamples = 4\nvalue = 31.958", fillcolor="#fdf5ef"] ;
741 -> 742 ;
743 [label="TM <= 36.6\nmse = 0.141\nsamples = 2\nvalue = 35.583", fillcolor="#fdf4ee"] ;
742 -> 743 ;
744 [label="mse = 0.0\nsamples = 1\nvalue = 35.958", fillcolor="#fdf4ed"] ;
743 -> 744 ;
745 [label="mse = 0.0\nsamples = 1\nvalue = 35.208", fillcolor="#fdf4ee"] ;
743 -> 745 ;
746 [label="VM <= 16.55\nmse = 2.25\nsamples = 2\nvalue = 28.333", fillcolor="#fdf6f1"] ;
742 -> 746 ;
747 [label="mse = 0.0\nsamples = 1\nvalue = 29.833", fillcolor="#fdf6f0"] ;
746 -> 747 ;
748 [label="mse = 0.0\nsamples = 1\nvalue = 26.833", fillcolor="#fdf7f2"] ;
746 -> 748 ;
749 [label="mse = 0.0\nsamples = 1\nvalue = 49.417", fillcolor="#fcf0e7"] ;
741 -> 749 ;
750 [label="H <= 60.5\nmse = 296.143\nsamples = 63\nvalue = 40.047", fillcolor="#fcf3eb"] ;
666 -> 750 ;
751 [label="TM <= 37.1\nmse = 238.287\nsamples = 6\nvalue = 14.736", fillcolor="#fefaf8"] ;
750 -> 751 ;
752 [label="mse = 0.0\nsamples = 3\nvalue = 0.0", fillcolor="#ffffff"] ;
751 -> 752 ;
753 [label="VM <= 12.95\nmse = 42.269\nsamples = 3\nvalue = 29.472", fillcolor="#fdf6f1"] ;
751 -> 753 ;
754 [label="mse = 0.0\nsamples = 2\nvalue = 24.875", fillcolor="#fdf7f3"] ;
753 -> 754 ;
755 [label="mse = -0.0\nsamples = 1\nvalue = 38.667", fillcolor="#fdf3ec"] ;
753 -> 755 ;
756 [label="Tm <= 26.9\nmse = 227.699\nsamples = 57\nvalue = 42.711", fillcolor="#fcf2ea"] ;
750 -> 756 ;
757 [label="H <= 65.5\nmse = 263.737\nsamples = 37\nvalue = 47.723", fillcolor="#fcf0e8"] ;
756 -> 757 ;
758 [label="V <= 7.95\nmse = 101.86\nsamples = 11\nvalue = 60.223", fillcolor="#fbece2"] ;
757 -> 758 ;
759 [label="VV <= 3.0\nmse = 52.661\nsamples = 10\nvalue = 57.9", fillcolor="#fbede3"] ;
758 -> 759 ;
760 [label="SLP <= 1002.35\nmse = 19.955\nsamples = 7\nvalue = 61.964", fillcolor="#fbece1"] ;
759 -> 760 ;
761 [label="mse = 0.0\nsamples = 1\nvalue = 71.667", fillcolor="#fae9dc"] ;
760 -> 761 ;
762 [label="H <= 63.5\nmse = 4.976\nsamples = 6\nvalue = 60.347", fillcolor="#fbece1"] ;
760 -> 762 ;
763 [label="VM <= 11.85\nmse = 0.807\nsamples = 5\nvalue = 61.275", fillcolor="#fbece1"] ;
762 -> 763 ;
764 [label="mse = 0.0\nsamples = 2\nvalue = 62.375", fillcolor="#fbece0"] ;
763 -> 764 ;
765 [label="mse = 0.0\nsamples = 3\nvalue = 60.542", fillcolor="#fbece1"] ;
763 -> 765 ;
766 [label="mse = -0.0\nsamples = 1\nvalue = 55.708", fillcolor="#fbeee4"] ;
762 -> 766 ;
767 [label="SLP <= 1004.65\nmse = 0.5\nsamples = 3\nvalue = 48.417", fillcolor="#fcf0e7"] ;
759 -> 767 ;
768 [label="mse = 0.0\nsamples = 1\nvalue = 47.417", fillcolor="#fcf0e8"] ;
767 -> 768 ;
769 [label="mse = -0.0\nsamples = 2\nvalue = 48.917", fillcolor="#fcf0e7"] ;
767 -> 769 ;
770 [label="mse = 0.0\nsamples = 1\nvalue = 83.458", fillcolor="#fae5d6"] ;
758 -> 770 ;
771 [label="VM <= 13.9\nmse = 238.142\nsamples = 26\nvalue = 42.434", fillcolor="#fcf2ea"] ;
757 -> 771 ;
772 [label="T <= 32.25\nmse = 37.305\nsamples = 13\nvalue = 31.913", fillcolor="#fdf5ef"] ;
771 -> 772 ;
773 [label="VV <= 2.2\nmse = 28.855\nsamples = 11\nvalue = 30.383", fillcolor="#fdf6f0"] ;
772 -> 773 ;
774 [label="mse = 0.0\nsamples = 1\nvalue = 41.583", fillcolor="#fcf2eb"] ;
773 -> 774 ;
775 [label="TM <= 34.85\nmse = 17.94\nsamples = 10\nvalue = 29.263", fillcolor="#fdf6f1"] ;
773 -> 775 ;
776 [label="mse = 0.0\nsamples = 1\nvalue = 41.5", fillcolor="#fcf2eb"] ;
775 -> 776 ;
777 [label="H <= 70.5\nmse = 1.445\nsamples = 9\nvalue = 27.903", fillcolor="#fdf6f1"] ;
775 -> 777 ;
778 [label="mse = 0.0\nsamples = 4\nvalue = 26.667", fillcolor="#fdf7f2"] ;
777 -> 778 ;
779 [label="T <= 29.65\nmse = 0.4\nsamples = 5\nvalue = 28.892", fillcolor="#fdf6f1"] ;
777 -> 779 ;
780 [label="mse = 0.0\nsamples = 2\nvalue = 29.667", fillcolor="#fdf6f0"] ;
779 -> 780 ;
781 [label="mse = 0.0\nsamples = 3\nvalue = 28.375", fillcolor="#fdf6f1"] ;
779 -> 781 ;
782 [label="mse = -0.0\nsamples = 2\nvalue = 40.333", fillcolor="#fcf2eb"] ;
772 -> 782 ;
783 [label="V <= 4.0\nmse = 217.602\nsamples = 13\nvalue = 52.955", fillcolor="#fcefe5"] ;
771 -> 783 ;
784 [label="mse = 0.0\nsamples = 2\nvalue = 30.667", fillcolor="#fdf5f0"] ;
783 -> 784 ;
785 [label="SLP <= 1001.9\nmse = 150.421\nsamples = 11\nvalue = 57.008", fillcolor="#fbede3"] ;
783 -> 785 ;
786 [label="Tm <= 26.2\nmse = 94.703\nsamples = 6\nvalue = 48.167", fillcolor="#fcf0e7"] ;
785 -> 786 ;
787 [label="H <= 76.5\nmse = 28.543\nsamples = 3\nvalue = 56.903", fillcolor="#fbede3"] ;
786 -> 787 ;
788 [label="mse = 0.0\nsamples = 1\nvalue = 64.458", fillcolor="#fbebdf"] ;
787 -> 788 ;
789 [label="mse = -0.0\nsamples = 2\nvalue = 53.125", fillcolor="#fceee5"] ;
787 -> 789 ;
790 [label="TM <= 35.7\nmse = 8.224\nsamples = 3\nvalue = 39.431", fillcolor="#fcf3ec"] ;
786 -> 790 ;
791 [label="mse = 0.0\nsamples = 2\nvalue = 41.458", fillcolor="#fcf2eb"] ;
790 -> 791 ;
792 [label="mse = 0.0\nsamples = 1\nvalue = 35.375", fillcolor="#fdf4ee"] ;
790 -> 792 ;
793 [label="V <= 5.2\nmse = 10.935\nsamples = 5\nvalue = 67.617", fillcolor="#fbeade"] ;
785 -> 793 ;
794 [label="mse = 0.0\nsamples = 2\nvalue = 71.667", fillcolor="#fae9dc"] ;
793 -> 794 ;
795 [label="mse = -0.0\nsamples = 3\nvalue = 64.917", fillcolor="#fbebdf"] ;
793 -> 795 ;
796 [label="VV <= 4.45\nmse = 28.6\nsamples = 20\nvalue = 33.44", fillcolor="#fdf5ef"] ;
756 -> 796 ;
797 [label="VV <= 2.2\nmse = 18.865\nsamples = 18\nvalue = 32.303", fillcolor="#fdf5ef"] ;
796 -> 797 ;
798 [label="mse = 0.0\nsamples = 3\nvalue = 38.25", fillcolor="#fdf3ec"] ;
797 -> 798 ;
799 [label="TM <= 37.2\nmse = 14.15\nsamples = 15\nvalue = 31.114", fillcolor="#fdf5f0"] ;
797 -> 799 ;
800 [label="Tm <= 28.05\nmse = 5.6\nsamples = 12\nvalue = 29.559", fillcolor="#fdf6f1"] ;
799 -> 800 ;
801 [label="TM <= 35.6\nmse = 1.407\nsamples = 8\nvalue = 28.589", fillcolor="#fdf6f1"] ;
800 -> 801 ;
802 [label="mse = 0.0\nsamples = 2\nvalue = 26.583", fillcolor="#fdf7f2"] ;
801 -> 802 ;
803 [label="V <= 5.75\nmse = 0.089\nsamples = 6\nvalue = 29.257", fillcolor="#fdf6f1"] ;
801 -> 803 ;
804 [label="TM <= 36.3\nmse = 0.008\nsamples = 4\nvalue = 29.052", fillcolor="#fdf6f1"] ;
803 -> 804 ;
805 [label="mse = 0.0\nsamples = 1\nvalue = 29.208", fillcolor="#fdf6f1"] ;
804 -> 805 ;
806 [label="mse = 0.0\nsamples = 3\nvalue = 29.0", fillcolor="#fdf6f1"] ;
804 -> 806 ;
807 [label="mse = -0.0\nsamples = 2\nvalue = 29.667", fillcolor="#fdf6f0"] ;
803 -> 807 ;
808 [label="T <= 31.55\nmse = 8.333\nsamples = 4\nvalue = 31.5", fillcolor="#fdf5f0"] ;
800 -> 808 ;
809 [label="mse = -0.0\nsamples = 3\nvalue = 29.833", fillcolor="#fdf6f0"] ;
808 -> 809 ;
810 [label="mse = 0.0\nsamples = 1\nvalue = 36.5", fillcolor="#fdf4ed"] ;
808 -> 810 ;
811 [label="mse = -0.0\nsamples = 3\nvalue = 37.333", fillcolor="#fdf3ed"] ;
799 -> 811 ;
812 [label="mse = -0.0\nsamples = 2\nvalue = 43.667", fillcolor="#fcf1ea"] ;
796 -> 812 ;
813 [label="T <= 33.75\nmse = 355.964\nsamples = 49\nvalue = 28.802", fillcolor="#fdf6f1"] ;
611 -> 813 ;
814 [label="VV <= 3.15\nmse = 276.688\nsamples = 45\nvalue = 25.894", fillcolor="#fdf7f2"] ;
813 -> 814 ;
815 [label="H <= 58.5\nmse = 227.14\nsamples = 33\nvalue = 30.593", fillcolor="#fdf5f0"] ;
814 -> 815 ;
816 [label="Tm <= 27.15\nmse = 79.963\nsamples = 8\nvalue = 42.323", fillcolor="#fcf2ea"] ;
815 -> 816 ;
817 [label="SLP <= 1006.75\nmse = 26.78\nsamples = 6\nvalue = 38.701", fillcolor="#fdf3ec"] ;
816 -> 817 ;
818 [label="VM <= 28.8\nmse = 12.806\nsamples = 4\nvalue = 35.729", fillcolor="#fdf4ee"] ;
817 -> 818 ;
819 [label="V <= 12.4\nmse = 4.694\nsamples = 2\nvalue = 32.5", fillcolor="#fdf5ef"] ;
818 -> 819 ;
820 [label="mse = 0.0\nsamples = 1\nvalue = 34.667", fillcolor="#fdf4ee"] ;
819 -> 820 ;
821 [label="mse = 0.0\nsamples = 1\nvalue = 30.333", fillcolor="#fdf6f0"] ;
819 -> 821 ;
822 [label="V <= 11.05\nmse = 0.063\nsamples = 2\nvalue = 38.958", fillcolor="#fcf3ec"] ;
818 -> 822 ;
823 [label="mse = 0.0\nsamples = 1\nvalue = 38.708", fillcolor="#fdf3ec"] ;
822 -> 823 ;
824 [label="mse = 0.0\nsamples = 1\nvalue = 39.208", fillcolor="#fcf3ec"] ;
822 -> 824 ;
825 [label="SLP <= 1008.45\nmse = 1.723\nsamples = 2\nvalue = 44.646", fillcolor="#fcf1e9"] ;
817 -> 825 ;
826 [label="mse = 0.0\nsamples = 1\nvalue = 45.958", fillcolor="#fcf1e9"] ;
825 -> 826 ;
827 [label="mse = 0.0\nsamples = 1\nvalue = 43.333", fillcolor="#fcf2ea"] ;
825 -> 827 ;
828 [label="Tm <= 27.75\nmse = 82.129\nsamples = 2\nvalue = 53.188", fillcolor="#fceee5"] ;
816 -> 828 ;
829 [label="mse = 0.0\nsamples = 1\nvalue = 62.25", fillcolor="#fbece1"] ;
828 -> 829 ;
830 [label="mse = 0.0\nsamples = 1\nvalue = 44.125", fillcolor="#fcf1e9"] ;
828 -> 830 ;
831 [label="VM <= 40.65\nmse = 216.122\nsamples = 25\nvalue = 26.84", fillcolor="#fdf7f2"] ;
815 -> 831 ;
832 [label="TM <= 36.85\nmse = 170.321\nsamples = 24\nvalue = 25.359", fillcolor="#fdf7f3"] ;
831 -> 832 ;
833 [label="T <= 30.05\nmse = 142.748\nsamples = 22\nvalue = 27.201", fillcolor="#fdf7f2"] ;
832 -> 833 ;
834 [label="SLP <= 1000.75\nmse = 120.525\nsamples = 4\nvalue = 13.26", fillcolor="#fefbf9"] ;
833 -> 834 ;
835 [label="SLP <= 999.5\nmse = 5.84\nsamples = 2\nvalue = 2.417", fillcolor="#fffefe"] ;
834 -> 835 ;
836 [label="mse = 0.0\nsamples = 1\nvalue = 0.0", fillcolor="#ffffff"] ;
835 -> 836 ;
837 [label="mse = 0.0\nsamples = 1\nvalue = 4.833", fillcolor="#fffdfd"] ;
835 -> 837 ;
838 [label="TM <= 33.85\nmse = 0.035\nsamples = 2\nvalue = 24.104", fillcolor="#fdf7f3"] ;
834 -> 838 ;
839 [label="mse = 0.0\nsamples = 1\nvalue = 24.292", fillcolor="#fdf7f3"] ;
838 -> 839 ;
840 [label="mse = 0.0\nsamples = 1\nvalue = 23.917", fillcolor="#fdf8f3"] ;
838 -> 840 ;
841 [label="V <= 8.9\nmse = 94.905\nsamples = 18\nvalue = 30.299", fillcolor="#fdf6f0"] ;
833 -> 841 ;
842 [label="mse = 0.0\nsamples = 1\nvalue = 0.0", fillcolor="#ffffff"] ;
841 -> 842 ;
843 [label="H <= 67.5\nmse = 43.31\nsamples = 17\nvalue = 32.081", fillcolor="#fdf5ef"] ;
841 -> 843 ;
844 [label="H <= 66.5\nmse = 49.356\nsamples = 6\nvalue = 27.076", fillcolor="#fdf7f2"] ;
843 -> 844 ;
845 [label="T <= 31.45\nmse = 6.469\nsamples = 5\nvalue = 30.042", fillcolor="#fdf6f0"] ;
844 -> 845 ;
846 [label="mse = 0.0\nsamples = 1\nvalue = 25.083", fillcolor="#fdf7f3"] ;
845 -> 846 ;
847 [label="V <= 12.1\nmse = 0.404\nsamples = 4\nvalue = 31.281", fillcolor="#fdf5f0"] ;
845 -> 847 ;
848 [label="mse = 0.0\nsamples = 2\nvalue = 31.917", fillcolor="#fdf5ef"] ;
847 -> 848 ;
849 [label="SLP <= 1001.7\nmse = 0.0\nsamples = 2\nvalue = 30.646", fillcolor="#fdf5f0"] ;
847 -> 849 ;
850 [label="mse = 0.0\nsamples = 1\nvalue = 30.667", fillcolor="#fdf5f0"] ;
849 -> 850 ;
851 [label="mse = 0.0\nsamples = 1\nvalue = 30.625", fillcolor="#fdf5f0"] ;
849 -> 851 ;
852 [label="mse = 0.0\nsamples = 1\nvalue = 12.25", fillcolor="#fefbf9"] ;
844 -> 852 ;
853 [label="T <= 32.5\nmse = 18.901\nsamples = 11\nvalue = 34.811", fillcolor="#fdf4ee"] ;
843 -> 853 ;
854 [label="T <= 31.15\nmse = 6.916\nsamples = 10\nvalue = 33.687", fillcolor="#fdf5ef"] ;
853 -> 854 ;
855 [label="T <= 30.45\nmse = 3.272\nsamples = 6\nvalue = 31.882", fillcolor="#fdf5ef"] ;
854 -> 855 ;
856 [label="SLP <= 1001.8\nmse = 1.129\nsamples = 2\nvalue = 34.229", fillcolor="#fdf4ee"] ;
855 -> 856 ;
857 [label="mse = 0.0\nsamples = 1\nvalue = 35.292", fillcolor="#fdf4ee"] ;
856 -> 857 ;
858 [label="mse = 0.0\nsamples = 1\nvalue = 33.167", fillcolor="#fdf5ef"] ;
856 -> 858 ;
859 [label="SLP <= 1000.45\nmse = 0.211\nsamples = 4\nvalue = 30.708", fillcolor="#fdf5f0"] ;
855 -> 859 ;
860 [label="T <= 30.9\nmse = 0.031\nsamples = 3\nvalue = 30.458", fillcolor="#fdf6f0"] ;
859 -> 860 ;
861 [label="mse = 0.0\nsamples = 2\nvalue = 30.333", fillcolor="#fdf6f0"] ;
860 -> 861 ;
862 [label="mse = -0.0\nsamples = 1\nvalue = 30.708", fillcolor="#fdf5f0"] ;
860 -> 862 ;
863 [label="mse = -0.0\nsamples = 1\nvalue = 31.458", fillcolor="#fdf5f0"] ;
859 -> 863 ;
864 [label="H <= 73.5\nmse = 0.157\nsamples = 4\nvalue = 36.396", fillcolor="#fdf4ed"] ;
854 -> 864 ;
865 [label="mse = 0.0\nsamples = 2\nvalue = 36.0", fillcolor="#fdf4ed"] ;
864 -> 865 ;
866 [label="mse = 0.0\nsamples = 2\nvalue = 36.792", fillcolor="#fdf4ed"] ;
864 -> 866 ;
867 [label="mse = 0.0\nsamples = 1\nvalue = 46.042", fillcolor="#fcf1e8"] ;
853 -> 867 ;
868 [label="T <= 33.1\nmse = 26.053\nsamples = 2\nvalue = 5.104", fillcolor="#fffdfd"] ;
832 -> 868 ;
869 [label="mse = 0.0\nsamples = 1\nvalue = 0.0", fillcolor="#ffffff"] ;
868 -> 869 ;
870 [label="mse = 0.0\nsamples = 1\nvalue = 10.208", fillcolor="#fefcfa"] ;
868 -> 870 ;
871 [label="mse = 0.0\nsamples = 1\nvalue = 62.375", fillcolor="#fbece0"] ;
831 -> 871 ;
872 [label="SLP <= 1002.0\nmse = 185.151\nsamples = 12\nvalue = 12.969", fillcolor="#fefbf9"] ;
814 -> 872 ;
873 [label="SLP <= 999.0\nmse = 33.926\nsamples = 6\nvalue = 25.938", fillcolor="#fdf7f2"] ;
872 -> 873 ;
874 [label="mse = 0.0\nsamples = 2\nvalue = 18.0", fillcolor="#fef9f6"] ;
873 -> 874 ;
875 [label="T <= 30.95\nmse = 3.636\nsamples = 4\nvalue = 29.906", fillcolor="#fdf6f0"] ;
873 -> 875 ;
876 [label="mse = 0.0\nsamples = 2\nvalue = 31.75", fillcolor="#fdf5ef"] ;
875 -> 876 ;
877 [label="V <= 9.35\nmse = 0.473\nsamples = 2\nvalue = 28.062", fillcolor="#fdf6f1"] ;
875 -> 877 ;
878 [label="mse = 0.0\nsamples = 1\nvalue = 28.75", fillcolor="#fdf6f1"] ;
877 -> 878 ;
879 [label="mse = 0.0\nsamples = 1\nvalue = 27.375", fillcolor="#fdf6f2"] ;
877 -> 879 ;
880 [label="mse = 0.0\nsamples = 6\nvalue = 0.0", fillcolor="#ffffff"] ;
872 -> 880 ;
881 [label="SLP <= 998.45\nmse = 82.129\nsamples = 4\nvalue = 61.521", fillcolor="#fbece1"] ;
813 -> 881 ;
882 [label="mse = 0.0\nsamples = 2\nvalue = 52.458", fillcolor="#fcefe5"] ;
881 -> 882 ;
883 [label="mse = 0.0\nsamples = 2\nvalue = 70.583", fillcolor="#fae9dc"] ;
881 -> 883 ;
884 [label="SLP <= 1006.15\nmse = 1512.231\nsamples = 158\nvalue = 75.002", fillcolor="#fae8da"] ;
556 -> 884 ;
885 [label="V <= 11.7\nmse = 1377.905\nsamples = 150\nvalue = 77.827", fillcolor="#fae7d9"] ;
884 -> 885 ;
886 [label="H <= 45.5\nmse = 1265.195\nsamples = 115\nvalue = 84.912", fillcolor="#fae5d5"] ;
885 -> 886 ;
887 [label="VV <= 1.85\nmse = 1335.123\nsamples = 52\nvalue = 100.257", fillcolor="#f9e0ce"] ;
886 -> 887 ;
888 [label="V <= 8.25\nmse = 1050.116\nsamples = 3\nvalue = 155.806", fillcolor="#f5ceb3"] ;
887 -> 888 ;
889 [label="H <= 39.5\nmse = 183.941\nsamples = 2\nvalue = 134.271", fillcolor="#f6d5bd"] ;
888 -> 889 ;
890 [label="mse = 0.0\nsamples = 1\nvalue = 147.833", fillcolor="#f5d1b7"] ;
889 -> 890 ;
891 [label="mse = 0.0\nsamples = 1\nvalue = 120.708", fillcolor="#f7d9c4"] ;
889 -> 891 ;
892 [label="mse = -0.0\nsamples = 1\nvalue = 198.875", fillcolor="#f2c19e"] ;
888 -> 892 ;
893 [label="TM <= 38.4\nmse = 1152.091\nsamples = 49\nvalue = 96.856", fillcolor="#f9e1d0"] ;
887 -> 893 ;
894 [label="mse = 0.0\nsamples = 2\nvalue = 158.292", fillcolor="#f5ceb2"] ;
893 -> 894 ;
895 [label="T <= 33.45\nmse = 1033.673\nsamples = 47\nvalue = 94.242", fillcolor="#f9e2d1"] ;
893 -> 895 ;
896 [label="V <= 5.3\nmse = 1211.257\nsamples = 13\nvalue = 70.478", fillcolor="#fae9dd"] ;
895 -> 896 ;
897 [label="mse = 0.0\nsamples = 2\nvalue = 0.0", fillcolor="#ffffff"] ;
896 -> 897 ;
898 [label="VV <= 2.65\nmse = 364.177\nsamples = 11\nvalue = 83.292", fillcolor="#fae5d6"] ;
896 -> 898 ;
899 [label="Tm <= 25.05\nmse = 199.032\nsamples = 7\nvalue = 92.685", fillcolor="#f9e2d2"] ;
898 -> 899 ;
900 [label="Tm <= 23.4\nmse = 21.258\nsamples = 4\nvalue = 102.625", fillcolor="#f8dfcd"] ;
899 -> 900 ;
901 [label="mse = 0.0\nsamples = 1\nvalue = 94.75", fillcolor="#f9e1d1"] ;
900 -> 901 ;
902 [label="V <= 8.0\nmse = 0.781\nsamples = 3\nvalue = 105.25", fillcolor="#f8decb"] ;
900 -> 902 ;
903 [label="mse = 0.0\nsamples = 1\nvalue = 106.5", fillcolor="#f8decb"] ;
902 -> 903 ;
904 [label="mse = 0.0\nsamples = 2\nvalue = 104.625", fillcolor="#f8decc"] ;
902 -> 904 ;
905 [label="TM <= 39.2\nmse = 128.646\nsamples = 3\nvalue = 79.431", fillcolor="#fae6d8"] ;
899 -> 905 ;
906 [label="mse = 0.0\nsamples = 1\nvalue = 65.167", fillcolor="#fbebdf"] ;
905 -> 906 ;
907 [label="SLP <= 1005.7\nmse = 40.375\nsamples = 2\nvalue = 86.562", fillcolor="#f9e4d5"] ;
905 -> 907 ;
908 [label="mse = 0.0\nsamples = 1\nvalue = 80.208", fillcolor="#fae6d8"] ;
907 -> 908 ;
909 [label="mse = 0.0\nsamples = 1\nvalue = 92.917", fillcolor="#f9e2d2"] ;
907 -> 909 ;
910 [label="SLP <= 1002.95\nmse = 228.595\nsamples = 4\nvalue = 66.854", fillcolor="#fbeade"] ;
898 -> 910 ;
911 [label="mse = -0.0\nsamples = 3\nvalue = 75.583", fillcolor="#fae7da"] ;
910 -> 911 ;
912 [label="mse = -0.0\nsamples = 1\nvalue = 40.667", fillcolor="#fcf2eb"] ;
910 -> 912 ;
913 [label="SLP <= 1001.65\nmse = 667.277\nsamples = 34\nvalue = 103.328", fillcolor="#f8dfcc"] ;
895 -> 913 ;
914 [label="V <= 7.65\nmse = 674.171\nsamples = 16\nvalue = 88.0", fillcolor="#f9e4d4"] ;
913 -> 914 ;
915 [label="TM <= 42.1\nmse = 496.801\nsamples = 5\nvalue = 59.483", fillcolor="#fbece2"] ;
914 -> 915 ;
916 [label="mse = 0.0\nsamples = 1\nvalue = 17.5", fillcolor="#fefaf6"] ;
915 -> 916 ;
917 [label="Tm <= 29.4\nmse = 70.189\nsamples = 4\nvalue = 69.979", fillcolor="#fbe9dd"] ;
915 -> 917 ;
918 [label="T <= 36.35\nmse = 2.011\nsamples = 3\nvalue = 65.194", fillcolor="#fbebdf"] ;
917 -> 918 ;
919 [label="Tm <= 25.4\nmse = 0.34\nsamples = 2\nvalue = 64.25", fillcolor="#fbebe0"] ;
918 -> 919 ;
920 [label="mse = 0.0\nsamples = 1\nvalue = 63.667", fillcolor="#fbebe0"] ;
919 -> 920 ;
921 [label="mse = 0.0\nsamples = 1\nvalue = 64.833", fillcolor="#fbebdf"] ;
919 -> 921 ;
922 [label="mse = -0.0\nsamples = 1\nvalue = 67.083", fillcolor="#fbeade"] ;
918 -> 922 ;
923 [label="mse = -0.0\nsamples = 1\nvalue = 84.333", fillcolor="#fae5d6"] ;
917 -> 923 ;
924 [label="H <= 24.5\nmse = 217.141\nsamples = 11\nvalue = 100.962", fillcolor="#f9e0ce"] ;
914 -> 924 ;
925 [label="mse = 0.0\nsamples = 1\nvalue = 133.375", fillcolor="#f6d5be"] ;
924 -> 925 ;
926 [label="T <= 37.75\nmse = 123.289\nsamples = 10\nvalue = 97.721", fillcolor="#f9e1cf"] ;
924 -> 926 ;
927 [label="Tm <= 26.6\nmse = 85.883\nsamples = 9\nvalue = 99.981", fillcolor="#f9e0ce"] ;
926 -> 927 ;
928 [label="mse = 0.0\nsamples = 1\nvalue = 77.708", fillcolor="#fae7d9"] ;
927 -> 928 ;
929 [label="H <= 36.5\nmse = 26.855\nsamples = 8\nvalue = 102.766", fillcolor="#f8dfcd"] ;
927 -> 929 ;
930 [label="V <= 10.3\nmse = 16.019\nsamples = 5\nvalue = 105.892", fillcolor="#f8decb"] ;
929 -> 930 ;
931 [label="T <= 36.65\nmse = 2.563\nsamples = 4\nvalue = 107.76", fillcolor="#f8ddca"] ;
930 -> 931 ;
932 [label="mse = 0.0\nsamples = 1\nvalue = 110.417", fillcolor="#f8ddc9"] ;
931 -> 932 ;
933 [label="TM <= 43.5\nmse = 0.281\nsamples = 3\nvalue = 106.875", fillcolor="#f8decb"] ;
931 -> 933 ;
934 [label="mse = 0.0\nsamples = 2\nvalue = 106.5", fillcolor="#f8decb"] ;
933 -> 934 ;
935 [label="mse = 0.0\nsamples = 1\nvalue = 107.625", fillcolor="#f8ddca"] ;
933 -> 935 ;
936 [label="mse = 0.0\nsamples = 1\nvalue = 98.417", fillcolor="#f9e0cf"] ;
930 -> 936 ;
937 [label="VV <= 2.25\nmse = 1.483\nsamples = 3\nvalue = 97.556", fillcolor="#f9e1cf"] ;
929 -> 937 ;
938 [label="mse = 0.0\nsamples = 1\nvalue = 95.833", fillcolor="#f9e1d0"] ;
937 -> 938 ;
939 [label="mse = 0.0\nsamples = 2\nvalue = 98.417", fillcolor="#f9e0cf"] ;
937 -> 939 ;
940 [label="mse = 0.0\nsamples = 1\nvalue = 77.375", fillcolor="#fae7d9"] ;
926 -> 940 ;
941 [label="Tm <= 27.2\nmse = 266.646\nsamples = 18\nvalue = 116.954", fillcolor="#f7dbc6"] ;
913 -> 941 ;
942 [label="T <= 34.6\nmse = 293.21\nsamples = 10\nvalue = 125.933", fillcolor="#f7d8c1"] ;
941 -> 942 ;
943 [label="H <= 30.0\nmse = 81.281\nsamples = 3\nvalue = 103.25", fillcolor="#f8dfcc"] ;
942 -> 943 ;
944 [label="mse = 0.0\nsamples = 2\nvalue = 109.625", fillcolor="#f8ddc9"] ;
943 -> 944 ;
945 [label="mse = 0.0\nsamples = 1\nvalue = 90.5", fillcolor="#f9e3d3"] ;
943 -> 945 ;
946 [label="VM <= 17.4\nmse = 69.016\nsamples = 7\nvalue = 135.655", fillcolor="#f6d5bd"] ;
942 -> 946 ;
947 [label="VV <= 2.35\nmse = 11.15\nsamples = 3\nvalue = 144.861", fillcolor="#f6d2b8"] ;
946 -> 947 ;
948 [label="mse = 0.0\nsamples = 2\nvalue = 142.5", fillcolor="#f6d3b9"] ;
947 -> 948 ;
949 [label="mse = -0.0\nsamples = 1\nvalue = 149.583", fillcolor="#f5d0b6"] ;
947 -> 949 ;
950 [label="V <= 6.85\nmse = 1.172\nsamples = 4\nvalue = 128.75", fillcolor="#f7d7c0"] ;
946 -> 950 ;
951 [label="mse = 0.0\nsamples = 3\nvalue = 128.125", fillcolor="#f7d7c0"] ;
950 -> 951 ;
952 [label="mse = 0.0\nsamples = 1\nvalue = 130.625", fillcolor="#f7d6bf"] ;
950 -> 952 ;
953 [label="Tm <= 27.8\nmse = 6.659\nsamples = 8\nvalue = 105.729", fillcolor="#f8decb"] ;
941 -> 953 ;
954 [label="VM <= 15.65\nmse = 0.12\nsamples = 5\nvalue = 107.717", fillcolor="#f8ddca"] ;
953 -> 954 ;
955 [label="mse = 0.0\nsamples = 3\nvalue = 108.0", fillcolor="#f8ddca"] ;
954 -> 955 ;
956 [label="mse = 0.0\nsamples = 2\nvalue = 107.292", fillcolor="#f8deca"] ;
954 -> 956 ;
957 [label="mse = 0.0\nsamples = 3\nvalue = 102.417", fillcolor="#f8dfcd"] ;
953 -> 957 ;
958 [label="V <= 6.85\nmse = 852.706\nsamples = 63\nvalue = 72.247", fillcolor="#fae8dc"] ;
886 -> 958 ;
959 [label="TM <= 40.05\nmse = 568.738\nsamples = 13\nvalue = 97.689", fillcolor="#f9e1cf"] ;
958 -> 959 ;
960 [label="H <= 60.0\nmse = 192.074\nsamples = 11\nvalue = 89.235", fillcolor="#f9e3d3"] ;
959 -> 960 ;
961 [label="H <= 48.5\nmse = 114.688\nsamples = 8\nvalue = 95.0", fillcolor="#f9e1d0"] ;
960 -> 961 ;
962 [label="mse = 0.0\nsamples = 1\nvalue = 71.958", fillcolor="#fae9dc"] ;
961 -> 962 ;
963 [label="H <= 56.5\nmse = 44.392\nsamples = 7\nvalue = 98.292", fillcolor="#f9e0cf"] ;
961 -> 963 ;
964 [label="Tm <= 26.4\nmse = 42.289\nsamples = 5\nvalue = 100.592", fillcolor="#f9e0ce"] ;
963 -> 964 ;
965 [label="TM <= 38.9\nmse = 10.083\nsamples = 4\nvalue = 97.667", fillcolor="#f9e1cf"] ;
964 -> 965 ;
966 [label="mse = 0.0\nsamples = 1\nvalue = 103.167", fillcolor="#f8dfcd"] ;
965 -> 966 ;
967 [label="mse = 0.0\nsamples = 3\nvalue = 95.833", fillcolor="#f9e1d0"] ;
965 -> 967 ;
968 [label="mse = -0.0\nsamples = 1\nvalue = 112.292", fillcolor="#f8dcc8"] ;
964 -> 968 ;
969 [label="H <= 58.5\nmse = 3.361\nsamples = 2\nvalue = 92.542", fillcolor="#f9e2d2"] ;
963 -> 969 ;
970 [label="mse = 0.0\nsamples = 1\nvalue = 90.708", fillcolor="#f9e3d3"] ;
969 -> 970 ;
971 [label="mse = -0.0\nsamples = 1\nvalue = 94.375", fillcolor="#f9e2d1"] ;
969 -> 971 ;
972 [label="T <= 32.65\nmse = 73.452\nsamples = 3\nvalue = 73.861", fillcolor="#fae8db"] ;
960 -> 972 ;
973 [label="SLP <= 1003.3\nmse = 4.168\nsamples = 2\nvalue = 67.917", fillcolor="#fbeade"] ;
972 -> 973 ;
974 [label="mse = 0.0\nsamples = 1\nvalue = 65.875", fillcolor="#fbeadf"] ;
973 -> 974 ;
975 [label="mse = -0.0\nsamples = 1\nvalue = 69.958", fillcolor="#fbe9dd"] ;
973 -> 975 ;
976 [label="mse = 0.0\nsamples = 1\nvalue = 85.75", fillcolor="#f9e4d5"] ;
972 -> 976 ;
977 [label="TM <= 41.25\nmse = 85.178\nsamples = 2\nvalue = 144.188", fillcolor="#f6d2b8"] ;
959 -> 977 ;
978 [label="mse = 0.0\nsamples = 1\nvalue = 134.958", fillcolor="#f6d5bd"] ;
977 -> 978 ;
979 [label="mse = -0.0\nsamples = 1\nvalue = 153.417", fillcolor="#f5cfb4"] ;
977 -> 979 ;
980 [label="Tm <= 25.55\nmse = 714.477\nsamples = 50\nvalue = 65.632", fillcolor="#fbebdf"] ;
958 -> 980 ;
981 [label="Tm <= 23.8\nmse = 95.681\nsamples = 3\nvalue = 6.917", fillcolor="#fffdfc"] ;
980 -> 981 ;
982 [label="mse = 0.0\nsamples = 1\nvalue = 20.75", fillcolor="#fef9f5"] ;
981 -> 982 ;
983 [label="mse = 0.0\nsamples = 2\nvalue = 0.0", fillcolor="#ffffff"] ;
981 -> 983 ;
984 [label="VM <= 23.15\nmse = 519.879\nsamples = 47\nvalue = 69.379", fillcolor="#fbe9dd"] ;
980 -> 984 ;
985 [label="TM <= 40.05\nmse = 481.504\nsamples = 32\nvalue = 62.263", fillcolor="#fbece1"] ;
984 -> 985 ;
986 [label="T <= 33.5\nmse = 225.257\nsamples = 21\nvalue = 51.107", fillcolor="#fcefe6"] ;
985 -> 986 ;
987 [label="H <= 73.5\nmse = 122.462\nsamples = 6\nvalue = 72.229", fillcolor="#fae9dc"] ;
986 -> 987 ;
988 [label="SLP <= 1001.1\nmse = 35.8\nsamples = 5\nvalue = 76.533", fillcolor="#fae7da"] ;
987 -> 988 ;
989 [label="V <= 8.45\nmse = 2.275\nsamples = 4\nvalue = 79.448", fillcolor="#fae6d8"] ;
988 -> 989 ;
990 [label="mse = 0.0\nsamples = 1\nvalue = 77.0", fillcolor="#fae7d9"] ;
989 -> 990 ;
991 [label="Tm <= 27.75\nmse = 0.371\nsamples = 3\nvalue = 80.264", fillcolor="#fae6d8"] ;
989 -> 991 ;
992 [label="mse = 0.0\nsamples = 2\nvalue = 79.833", fillcolor="#fae6d8"] ;
991 -> 992 ;
993 [label="mse = 0.0\nsamples = 1\nvalue = 81.125", fillcolor="#fae6d7"] ;
991 -> 993 ;
994 [label="mse = 0.0\nsamples = 1\nvalue = 64.875", fillcolor="#fbebdf"] ;
988 -> 994 ;
995 [label="mse = -0.0\nsamples = 1\nvalue = 50.708", fillcolor="#fcefe6"] ;
987 -> 995 ;
996 [label="T <= 34.1\nmse = 16.537\nsamples = 15\nvalue = 42.658", fillcolor="#fcf2ea"] ;
986 -> 996 ;
997 [label="T <= 33.75\nmse = 4.254\nsamples = 2\nvalue = 35.562", fillcolor="#fdf4ee"] ;
996 -> 997 ;
998 [label="mse = 0.0\nsamples = 1\nvalue = 33.5", fillcolor="#fdf5ef"] ;
997 -> 998 ;
999 [label="mse = 0.0\nsamples = 1\nvalue = 37.625", fillcolor="#fdf3ed"] ;
997 -> 999 ;
1000 [label="V <= 9.45\nmse = 9.489\nsamples = 13\nvalue = 43.75", fillcolor="#fcf1ea"] ;
996 -> 1000 ;
1001 [label="V <= 7.9\nmse = 5.041\nsamples = 8\nvalue = 45.745", fillcolor="#fcf1e9"] ;
1000 -> 1001 ;
1002 [label="mse = 0.0\nsamples = 2\nvalue = 49.417", fillcolor="#fcf0e7"] ;
1001 -> 1002 ;
1003 [label="H <= 54.5\nmse = 0.73\nsamples = 6\nvalue = 44.521", fillcolor="#fcf1e9"] ;
1001 -> 1003 ;
1004 [label="mse = 0.0\nsamples = 3\nvalue = 45.375", fillcolor="#fcf1e9"] ;
1003 -> 1004 ;
1005 [label="mse = -0.0\nsamples = 3\nvalue = 43.667", fillcolor="#fcf1ea"] ;
1003 -> 1005 ;
1006 [label="SLP <= 997.55\nmse = 0.05\nsamples = 5\nvalue = 40.558", fillcolor="#fcf2eb"] ;
1000 -> 1006 ;
1007 [label="mse = 0.0\nsamples = 2\nvalue = 40.833", fillcolor="#fcf2eb"] ;
1006 -> 1007 ;
1008 [label="mse = -0.0\nsamples = 3\nvalue = 40.375", fillcolor="#fcf2eb"] ;
1006 -> 1008 ;
1009 [label="Tm <= 30.45\nmse = 279.522\nsamples = 11\nvalue = 83.561", fillcolor="#fae5d6"] ;
985 -> 1009 ;
1010 [label="H <= 66.5\nmse = 152.511\nsamples = 8\nvalue = 76.49", fillcolor="#fae7da"] ;
1009 -> 1010 ;
1011 [label="T <= 34.6\nmse = 11.025\nsamples = 6\nvalue = 69.556", fillcolor="#fbe9dd"] ;
1010 -> 1011 ;
1012 [label="VM <= 15.65\nmse = 0.21\nsamples = 2\nvalue = 65.625", fillcolor="#fbebdf"] ;
1011 -> 1012 ;
1013 [label="mse = 0.0\nsamples = 1\nvalue = 66.083", fillcolor="#fbeadf"] ;
1012 -> 1013 ;
1014 [label="mse = 0.0\nsamples = 1\nvalue = 65.167", fillcolor="#fbebdf"] ;
1012 -> 1014 ;
1015 [label="H <= 53.0\nmse = 4.845\nsamples = 4\nvalue = 71.521", fillcolor="#fae9dc"] ;
1011 -> 1015 ;
1016 [label="mse = 0.0\nsamples = 3\nvalue = 70.25", fillcolor="#fae9dd"] ;
1015 -> 1016 ;
1017 [label="mse = -0.0\nsamples = 1\nvalue = 75.333", fillcolor="#fae8da"] ;
1015 -> 1017 ;
1018 [label="mse = -0.0\nsamples = 2\nvalue = 97.292", fillcolor="#f9e1cf"] ;
1010 -> 1018 ;
1019 [label="SLP <= 995.75\nmse = 129.337\nsamples = 3\nvalue = 102.417", fillcolor="#f8dfcd"] ;
1009 -> 1019 ;
1020 [label="mse = 0.0\nsamples = 1\nvalue = 118.5", fillcolor="#f7dac5"] ;
1019 -> 1020 ;
1021 [label="mse = 0.0\nsamples = 2\nvalue = 94.375", fillcolor="#f9e2d1"] ;
1019 -> 1021 ;
1022 [label="Tm <= 27.7\nmse = 263.224\nsamples = 15\nvalue = 84.561", fillcolor="#fae5d6"] ;
984 -> 1022 ;
1023 [label="mse = 0.0\nsamples = 3\nvalue = 110.417", fillcolor="#f8ddc9"] ;
1022 -> 1023 ;
1024 [label="T <= 33.25\nmse = 120.121\nsamples = 12\nvalue = 78.097", fillcolor="#fae7d9"] ;
1022 -> 1024 ;
1025 [label="mse = 0.0\nsamples = 1\nvalue = 47.583", fillcolor="#fcf0e8"] ;
1024 -> 1025 ;
1026 [label="VV <= 2.9\nmse = 38.701\nsamples = 11\nvalue = 80.871", fillcolor="#fae6d7"] ;
1024 -> 1026 ;
1027 [label="H <= 48.5\nmse = 3.317\nsamples = 8\nvalue = 77.182", fillcolor="#fae7d9"] ;
1026 -> 1027 ;
1028 [label="mse = 0.0\nsamples = 3\nvalue = 75.125", fillcolor="#fae8da"] ;
1027 -> 1028 ;
